function [Y,Xf,Af] = fc_noisy(X,~,~)
%FC_NOISY neural network simulation function.
%
% Auto-generated by MATLAB, 30-Nov-2018 23:37:37.
% 
% [Y] = fc_noisy(X,~,~) takes these arguments:
% 
%   X = 1xTS cell, 1 inputs over TS timesteps
%   Each X{1,ts} = 4xQ matrix, input #1 at timestep ts.
% 
% and returns:
%   Y = 1xTS cell of 1 outputs over TS timesteps.
%   Each Y{1,ts} = 1xQ matrix, output #1 at timestep ts.
% 
% where Q is number of samples (or series) and TS is the number of timesteps.

%#ok<*RPMT0>

% ===== NEURAL NETWORK CONSTANTS =====

% Input 1
x1_step1.xoffset = [-10.9651479387594;-0.529684317955049;-5.79238728075775;-1.61830370974863];
x1_step1.gain = [0.0910616273813776;1.96467916041554;0.164642780171319;0.658216591805853];
x1_step1.ymin = -1;

% Layer 1
b1 = [-3.973317090978487176;3.835292861532257902;3.7448064151150624035;-3.5305612146306462051;-3.4816563348510181086;3.3859517515234491825;3.2655117869211194304;-2.9847205566874235316;2.8802253908526092019;-2.7416140101527108897;2.7390403306843613684;2.6317878183662961611;-2.2268686032615359061;-2.256589755303264333;-2.3124428717022453839;-1.9671690458553459102;1.871207478772801247;-2.0425723254831198439;1.5610891489786908881;1.4669040378594435658;1.4123563590684664604;-1.5505818060475120568;-1.1987995147593359935;-1.0284717608531956934;-1.0335581965807232319;0.95538761387409798509;-0.69854626550454679279;-0.29754471617898575753;-0.3467420097913279653;-0.10621904274507810995;0.029008213124817373157;0.108921779405585617;-0.046387060880452773981;0.26347342041724564066;0.23282526825330820963;0.41630546464035123044;0.68249466183253826301;0.64100851255909085946;-0.82752294654425184728;0.87466365229417719629;-1.1306087382121778884;-1.121793998596550157;1.334839882405012057;-1.6586442067676412382;-1.563284785523160858;1.51755045073697592;1.6605432190877755794;2.0911454072700061957;-2.042613917357762876;-2.1444969238190201288;2.3152116055130269601;-2.4949384493531971962;2.6125311994287954143;-2.7181176512724363192;2.8235526526454997054;2.9010032779989813889;-3.022869296786561133;3.3352482615417557987;3.2738198424337880965;3.4401446221505547207;3.6706714536515501202;3.7146693615253436604;3.8591290902288939435;-4.0184981147452232264];
IW1_1 = [2.7784053451777754873 -1.3524330169827343262 1.322117963841642263 2.1049948964715370359;-2.0826299414720095271 1.2661381342541622175 -2.2763086482826642154 2.1347400848674342733;-1.819986230380494785 -2.8929619033799736094 1.0341370333365251799 -1.5626924616583321992;1.8944204818843364269 -2.2244871863980479887 -1.7110344865064446296 -2.0951868370737751768;1.5090132281134984726 2.7723200851620886098 0.84572713723477810355 -2.200076665860079661;-2.4712245965738848241 -1.8561092423446881039 -1.1774570826731636242 2.0674960192642957146;-2.0029358979151083986 2.2415723939211629201 1.913562298490923741 -1.5721436911110973078;1.315093578293888843 -1.2257910680166101969 2.94945646300077291 1.9357058781263831726;-2.1533326361860209985 -1.4274025317376726196 1.9033705939980498645 -2.1908525853263585148;0.47727132029243263256 -1.8617484716148269275 3.4974803255514053113 0.11737318735544106929;-0.41884481214746249744 2.6290131997097767602 1.2709722081824057494 2.6232652964441003363;-0.9615231474004070078 2.515614441812439761 0.35177362855380983619 2.7545063228962618496;0.62602605623544416158 -3.45413612207828713 1.6318640911644706204 -0.7538011623438559683;2.653171622675288166 -2.6802515740332299998 0.32522251580517141933 -0.45533908513445831012;3.0727133292173127721 1.5423289494816503353 -0.80235877595549776053 -1.5228572917164697742;1.8094566283935120676 -0.62587668644518423822 -2.142488756850545073 -2.5455326821944428417;-3.0758673380740195746 0.11142847387594190245 -2.364595393836160131 -0.6228757817113098616;0.60147612295001606775 -2.8612349146620483786 -2.1851092324152783242 -1.0996612583789489026;-1.8182480653609882637 1.4597371417494837686 -1.6611526965487819485 2.6271004751331870075;-0.22372860188943918813 -2.838697129627858029 -2.4792854519847447037 -0.36128775479487595934;-2.8903386800647621335 1.0613651892788749098 2.3502578266443663324 -0.64662710104953102785;2.1746919195169027716 2.5668828390757258973 1.6902925967325577172 -0.72441490799816898871;0.29069163352809485046 2.526498268305091166 -2.2108205768679414227 -1.8653329906865117049;2.4701653146634852121 -1.9734129574696475107 -1.72448111541329685 -0.63211726348357577532;3.149687516199220827 -1.6579452508744536576 -1.3602624011783441826 0.087258511617308853747;-1.2312185085534630424 0.64849612250761334842 2.2540732619006527138 -2.3105828450436152188;1.0350001943896089962 3.2244141696782540052 -1.2002386504551130209 1.4440795161228869858;0.77046404261181511419 3.0056247495439878392 -1.611114467716940446 1.3379266435851151495;2.1815862535643217868 -1.8150268401568294685 -2.3446666767161312706 1.0756827464520186677;2.2822656764082522862 0.029902476446418489731 1.7229963334906861494 -1.5307297890842745947;0.71473159292383414698 -3.4404270992281285046 0.26144681756047982724 -0.3272547231274160473;-2.200626144790773342 1.1446739088297657183 1.4968234261491499826 -2.4728788313457856773;1.8555547564336944966 1.9625018243855578692 -2.3033919659377875 0.84667707420967441845;2.6018717638179014173 -0.033963852986344286733 -0.60761176538255579072 2.7444778143956121141;1.6981451623048542388 -1.4316109620787582646 2.3385853535210960885 1.7974609563864103468;2.730268028876160713 -2.309830981851836107 -0.69967997782019919484 -0.70225367563831719853;1.512622027620936338 3.3433630746483236074 -0.77571087337686284169 -0.2049836104033428974;2.5236999020180324038 2.483945330763299264 -1.4378659190668994228 0.22145584664877901448;-2.3217984397769595439 -1.5296288429680098275 -1.7798885696478856655 1.3156385714682188315;-0.0050215157948226094714 2.5036049744975850118 2.0180799779442790687 1.6321872618550086198;-0.13628581777242143591 0.37928906047877675167 -3.7134032913211418858 -0.5852086662008023632;-0.33812874867873965457 2.849848133066167577 1.6824583198485116853 1.5599648061956605805;1.5817791507251268701 3.0231062986664287706 -1.3460225379517916089 -1.4124943180841631474;-0.18864790824726301866 2.9866139237135125306 0.76319901683916835378 -2.1926645890227134394;-1.8840012333822224733 -0.7162121323000470996 1.591693403794736783 -2.726141811538277171;0.98084054940227660691 0.0011610360524711496599 2.4684904418743176535 -2.7239894101097394952;2.7412810886228955454 1.3431380009607831738 -2.0851026052837307034 -1.2421405623392840489;1.0968150738998301286 -2.7036093725707837088 -0.64424368339428939034 2.3777501225747430524;-0.33700210544482778197 -2.5077276632328646677 -2.9474398079617802892 -0.36217886254760239817;-1.912956872081520876 -2.0108811047565988694 -0.23908693325186369805 -2.788035778808695575;0.87806203096624269033 -2.9974080110910823471 1.0740853247037158713 -1.7054957185893300231;-1.4475505162145305693 1.7086475965968381807 1.1905950162161258454 -2.9879623517803901578;1.8157666175683551124 -2.8000157537100172078 -0.023821113291814927787 1.9177998773214770534;-2.8710499175912524983 1.9271028024323046957 -1.5732693840008329378 -0.90784085080935639223;0.39130879867150492046 3.0471298605969487916 0.46192276749087118892 -2.4583519920140615156;2.6385058248596804376 0.58095620682946447211 0.50949799417009211666 2.9024754035435385013;-2.5559455157861297181 -0.020680579095989217592 1.3420957883975281888 2.6032477727897744835;1.1098451331582057655 -2.2362708443828083205 -2.4151033392342529105 -1.4527583122614200484;1.7976320366013269769 1.3735482779191841018 1.4854351895113020454 2.9484989848921481226;2.5266710963136063128 1.240439985344971463 1.8915992154040270901 2.0576123736498552752;3.3564411175412001143 0.58581435801161840793 -1.5649109856180438705 0.894491796142500184;2.9261859953602722406 0.92746185433568906209 2.4299445966053858648 -0.38999490852477913805;2.2679589079317996614 -2.9836261125266481109 -0.14559996023932042508 1.211976562391218204;-2.294971021971251357 1.7628832685843311978 -2.3005651784218525968 -1.2752949338721015771];

% Layer 2
b2 = [-1.4864596050060883137;1.3711359924888326667;-1.3005649700143835368;-1.222796266719362368;1.1073476664938035618;0.99706310267561037985;-0.91385749474878275045;0.76559937347592854628;-0.73380787265807523312;-0.64371792954770945538;-0.52507634854661688895;-0.43032765426848867962;0.33453558246921716313;-0.25861129345902050813;-0.14636175685204905195;-0.048929591085070889278;-0.10528735259380925249;0.15269242851333930666;0.26633676361952213218;-0.26502497022120008463;0.49273937430597747333;-0.47871872425541561746;0.6351392055264126757;0.74004542795759764573;-0.83272490697684009575;-0.97302916330540112355;-1.0011256743989118689;-1.1404827663587759901;-1.1815542695038612209;-1.2813625044918550699;-1.3945683867761315966;-1.4903349923306963287];
LW2_1 = [0.16442262046016517529 0.28922168120019292603 0.083072586983515411818 -0.3043623489616039679 -0.11639770666709960134 0.05931762848177570685 0.14954079711916273832 0.20359103453740992618 0.11854270404183266108 0.27879704531255938837 0.22011364600941071834 0.29410049558678114101 0.2429384018982023441 -0.081846363151531389968 -0.15230101138364490754 -0.064983147721511674844 0.026473417902367662319 -0.22406788229404986379 0.19289545230205648596 -0.20125712072578016976 -0.135827862841124275 -0.092906019395094754931 0.11176998387929679146 -0.30318088288152206244 0.088540523855096947559 -0.090266599623559498622 0.13599379764011196303 -0.22260956849666097002 0.32922175823341659484 -0.33172185629679828978 -0.039468825564456362642 0.056131158115327546565 -0.10839044764797355069 -0.011453942529300754211 0.014733221108380554001 0.23270595945554767292 0.047575392435934962809 0.25252500726504839568 -0.063741110164578757002 0.22970195346389415958 -0.20197106374961890096 0.034436651252178700211 -0.050469365439134258877 0.10824897488124901601 0.17394909731276972376 0.34861457053356748048 0.044654520226677082984 0.32011908256316440324 0.23685546032175858189 -0.21703014646583154712 -0.23070237568057774813 0.2549894791462870014 -0.19596557434993847058 -0.063542066228846338927 0.098491736123591785979 -0.10037449603200600257 -0.17955568093559193255 0.25435968928616597973 0.23506675094260973125 0.13626803834437428709 -0.25063749686165992525 0.092013199549385180087 0.032006733868514367081 0.26869016654509647601;-0.096786125587325758102 0.021023517734736794221 -0.11776254101157236642 0.24108088045628317531 -0.30529784672328319495 0.0094906454171465003122 -0.2340894927607084508 -0.034782915708966563595 0.26110431009998169571 0.27941485677269001231 -0.015342452952144140788 -0.26276784604007419333 -0.032548730739455668248 -0.033026493731714907931 0.060825286451668375554 -0.21042836911609402728 0.01010362518394014239 -0.22175145776400007058 0.0079275399998043928618 -0.26623848635137092877 0.12903542803317208376 0.32750586224065136864 -0.060937174464040934352 -0.20101429337319723367 -0.25785025982327880456 -0.0054398305155528483418 0.077742949013414899828 -0.26589587560637473196 -0.18387083740219636874 0.049222632095159660204 0.22464204849943739117 -0.011448220095462589493 -0.25752356499662565348 0.087593049425031585531 -0.091952818545726275334 -0.40585798138407097602 0.16920339377283774573 0.26194085881558787365 0.21096507013435519817 -0.090503950426279816677 -0.091345414458158191717 -0.071346094147487396087 0.11745520806078647846 0.018628423142339166352 0.067028638780736282676 0.027322639336051487979 0.16357862598996289472 0.078886570981401421543 0.099178178388905344209 -0.18277659373469956616 -0.032616201848954140541 0.1151058998142636125 0.15471922346873343002 -0.036488595818578016539 -0.36222494678165845228 -0.1163366689799450876 0.17846274204928136431 0.19346943144734446429 0.20408380736846776227 -0.25961993113270548372 0.30203200036989841237 -0.12629536886732295464 0.061160520807513031605 -0.21824312961792274868;0.080524583033042579361 -0.0071456133871991489234 0.25715025563126525654 0.016919808322782614596 -0.26939379890240705562 0.23744080747511520091 -0.18540308680198128166 -0.27180783567440192083 -0.074784542580829366232 -0.038621807574390494555 -0.31205352921586315684 0.089695833388347398496 -0.16331869915324986886 -0.22230989695526337524 0.15801163222872874337 -0.15976549353982838486 -0.1774276813961326027 -0.31393335938810434937 0.032969772465452178156 0.12009350838307537856 -0.13398989017106818777 -0.019006550482564808086 -0.038275400969425998898 -0.31966576237733745902 0.21737061714637270771 0.10217495478674942788 0.31215747954743194859 0.092149020432537781522 -0.24595030769244854985 -0.17514662419477930455 -0.22036885652800305979 0.089371691617923312845 0.25717452292104558964 -0.22963751851567751339 -0.015145109496971209326 -0.02083027110162844267 -0.1488677354126358432 -0.14555027023862565638 0.10241608697255601135 -0.14113155167020396963 0.081116322217778369374 0.081965435101722675104 -0.061358915579365437554 -0.20545560968985943084 0.15502902573481738835 0.030581019490906795333 -0.039018690260986407803 0.20556024924121082953 0.18369176545972049075 -0.014490833906333780434 -0.22115093562001811311 0.24486397081351132798 -0.071625029497765807518 -0.065804162762145582133 0.18516787402851453415 0.12736217463722637744 -0.091595581727136096695 -0.17994721901997695612 -0.26257748263047803183 0.078331507627010507622 0.04627711383913576948 -0.086935748125175266177 -0.20077980466736650156 -0.22230965867992466545;0.18481531377243362591 -0.1667774861080774107 0.11461947490378718295 -0.2199646864139768454 -0.16308232414157702861 0.006505389109236958331 -0.010715470759847895918 -0.053120131973635513478 -0.0039598383120423314568 -0.21962075543577033732 0.14938995494807255637 -0.34303374400451286386 0.2483350958473387049 -0.040595004885888033574 -0.091779581462284334781 0.089407159878901132366 -0.2103522214800398471 0.25276438666617190298 -0.11109060038224129185 0.23239789916655215207 0.041077358710538768027 0.29484844920209474228 0.20442380816461463988 -0.10198464044040331244 0.22561877808347138852 0.14474029423637715941 -0.14221493410049784734 -0.26993897257083449004 0.18223878803270213145 0.11338415732168395655 0.24156122233889457118 0.14848670282459630609 -0.33163328467867614346 -0.29997745285860438758 -0.10610293063418564652 -0.074779513730307320407 -0.118649700712613132 0.21087306799911997857 -0.024925215721214033504 0.1026035221812318099 0.39348752462586400469 0.053614973199293099182 -0.04363475579402287946 0.17082388113968000054 -0.20720980552434337119 -0.32570272218124513008 -0.17540523742278876784 -0.24457560096179245535 -0.25327246503355144158 0.088297173602738740494 0.037458466281269947595 -0.24341867898440489038 -0.097385160133223847012 0.28271801103318838777 0.15727714641278914276 -0.28806259911340120761 0.01621584013246161679 0.095151411728218435182 -0.023952985085117988601 -0.079227387728489570562 -0.22342238205984230048 0.066212191160436847936 -0.26221412179598602155 -0.031418270390119081015;-0.12018123019403048612 0.056045187874382500215 0.047344702153114967547 0.11181892582395053237 0.19227077967640743283 -0.12242899134927572036 -0.065866179910908928541 -0.10326237159123992371 -0.027873020935648185753 0.0027634654191277369627 0.093881890759987207673 -0.098079734474095500718 -0.081742253404653880677 0.063751284411226780136 -0.16853118087669174963 0.10747087806883873218 0.13239222355683835652 -0.18216261647523249168 0.20841417764562267245 -0.17647544704852541342 0.27598570074804318342 0.22980732410760915108 -0.10064793671640105688 -0.14967450662996459321 0.34744483413795296256 0.03418249401353962158 -0.16250795500156539619 -0.0238863224611802899 0.133958806001394648 0.091372469775102077572 -0.38197241431011658142 -0.094084822056284864167 0.098362932222122168024 -0.049609759866944255768 0.16866509932374149083 -0.17629527585142559798 -0.23670973527491914745 0.22112493669608607183 -0.007872143651539395201 0.057712506304703745097 -0.2549227675447473529 -0.31842025801277346053 -0.11286532523770441416 0.24350586689929062945 0.26729787796788184728 0.1738388927535057249 -0.32157227866792026383 -0.12836804301903195769 0.043009625656783054271 0.079130482128219450932 0.018650091578859783609 0.17044447794554837272 0.011289824535781495946 0.29126510981315290039 -0.16836616180503022333 0.32594057172557988622 -0.050167747060022513383 0.1845220953478440562 0.31805763005448883796 0.12473287862912042778 0.13757687624573872176 -0.12323532953298892145 0.014799948716452402883 0.10034594759970828781;-0.1866046929822640088 -0.11729560535947756994 0.18195691158335172699 -0.20694558708904803312 0.25760575367623139709 0.28617375708679576585 -0.24977247259740884 0.0090059204547708777977 -0.29871700942810686108 -0.08248669069916311769 0.097262524711035136527 0.25546807827083861664 0.080178510105616537795 0.24201936789585312693 0.16272900258746983426 -0.16031032478896606319 -0.10404016640852480069 0.35209908603494965984 0.090340929080645449023 -0.048377985776233575765 -0.23285409789467195751 -0.39503566014914137661 -0.19962332423236420209 0.21009419549166977181 0.13614483645573757786 -0.096218823976904385709 -0.2096045125256894015 -0.25822427631787697733 -0.18167159808395474951 -0.28922967010091465978 -0.075059593422898862602 -0.050708228667770402498 0.28386053292369683998 0.16904473355080962271 -0.16541000071797418158 0.04376105089407505977 -0.18771702407324342143 0.20778722231536372878 0.14946808807309322487 0.06375732277938092607 -0.22254565331777509396 -0.23144602330162403203 0.13138803671985030408 0.092172547558542289314 -0.24144258202860791052 0.12645911705702139738 -0.14774248669763428987 -0.18013770573068754732 0.013300047066109330421 0.20059675829381326539 -0.28738898310908411737 -0.020568367985273651455 0.10594356219003006614 -0.14692216909944441627 0.17663486780937259768 -0.12193380793825842057 -0.15184472106427865379 -0.21219660039790499972 0.23817718673917537275 0.17632510202096313146 0.069236314320493541619 -0.088680918598357805216 -0.015720849229524595791 0.14768900340136820182;0.12684875313814186759 -0.30864203956603697421 -0.075885756332325179918 0.19847478963950590525 -0.1305690000329462197 0.0025607728425901853456 -0.28897834576108016869 -0.093326708593302859507 -0.026087293276497752759 0.061533807749043635538 0.28967710161849813399 0.057642689282794722094 -0.2124747315540951309 -0.28914470059546032443 0.33790861852880094141 -0.16398900125452930965 -0.27271105948562029964 -0.17250172692657345097 -0.17302747646060953612 -0.31613860439459140483 -0.22655319505655849288 0.046660914894828979527 0.18176994111205824201 -0.34749094067495805982 0.20844163250993941183 -0.16569762330246545767 -0.30331225576731402072 0.093547614063438103149 0.22099333124331024814 0.20759865633352095338 -0.11591121485826519355 0.34787476634335268155 0.18336770631452575797 -0.23570618026268755352 0.20586932297847251871 0.29801172851484108994 0.0086332487986300245758 -0.15283960679632149771 0.12486379636660289993 0.02518645309531271706 -0.24273281525405343562 -0.15600876283694301017 -0.10799561969503697345 -0.16875844732961234329 -0.21987383499617790816 0.12443899263510802 -0.031803861717509034068 -0.083146802336806546752 0.060356083489730948111 0.1965893265324764605 0.083682165772227090628 -0.17551552414806448343 -0.13726121555936321439 0.19381239091463167701 -0.083515565963755603041 0.006453180208984286674 0.12863024664587130452 -0.016741049570517904654 -0.17613014449533551109 -0.21752686371445478786 0.1949844754385865464 0.12347618148680862549 -0.25434071754646714325 0.15033286016343810898;-0.086897749152098135994 -0.058986700689624589622 -0.17644879071206462373 -0.11060405467373864152 -0.022505771812111829977 0.18765217947726514636 -0.23726570764785639978 -0.081005185758796213746 -0.085550214100760468838 -0.34659032085684060576 -0.062461208797986188246 -0.24466553107243366183 -0.17842504575124656929 0.14417337646580530297 -0.22392990438755616678 -0.22713871078589020769 -0.28072110796335975058 -0.082561877489766538618 0.0084160173862437188952 -0.054109128421783940499 0.15281800824409291772 0.21512408651742245813 0.12750494125272107682 -0.17077185681443901588 -0.14864908069380600164 -0.0089643676934063123984 -0.060792046686182613091 0.25455894536688916663 0.029765473247204958518 -0.40732504768424082631 -0.09374267507930066079 0.044633631138716912956 -0.14539539012019503383 0.19906286357408506382 0.0067112618889048113527 0.045081717471835890121 0.10170133002758056928 -0.24108355760950664348 0.23286597327696290094 0.19542455478304637806 -0.064141771235145556007 0.068117208545216925697 0.30531196484424710791 -0.0046453376614302771194 0.045735820725611636695 -0.092067335945395192831 -0.01364035756520121101 0.15983209633999453936 0.22504018219389185229 0.26023038917525326275 -0.15668618703184858387 0.051939630848561173238 -0.26005487849579339565 -0.027823213762926152226 -0.37194342967844218339 0.13307494516060408563 0.11701513493039474023 -0.0092798986392081065505 -0.062041709130841081465 -0.0061027193518487631713 -0.23206247812887997872 -0.10877895064295436955 -0.17759951847385160861 0.19065209188667242568;0.021159289714170546881 0.12435923918564079083 -0.028938569858391053474 -0.15564175240011435264 0.014542953508089472361 0.1468742682609698591 -0.010732013396294754273 -0.1189153903751816177 0.12801169457487443504 0.14630811139104962781 -0.23223511129494545102 -0.16444472672607057806 0.2334019409891949226 0.1677672781764058263 -0.18797024742213039317 0.0029045898658251940484 0.09444084334715646678 -0.31066687822698374477 -0.046422447374142965237 0.30402240767553412315 0.19850132268188422358 -0.25254103407338662768 0.31993117634181350573 -0.26932676195669608132 0.26857399236723478175 0.20040043765470483272 -0.010468541189186698903 -0.19153322299130684514 0.20095803273375650866 -0.12424971660067594958 -0.15938339467176018682 0.38872813302337588803 -0.053752854461523724705 -0.074603369046404799381 0.26487596469907581653 0.26018927461287555403 -0.10381422124964742593 -0.031702992003502267204 0.303583853546980309 0.17885524460912657907 0.10849057866527667127 0.18966228803940715641 0.0050337341045942384302 -0.13260323883262745137 0.35096164630023918285 -0.12030400569169788505 0.13595983961665419892 0.0247577262272032049 0.069381688811314567999 0.13280766976272725954 0.031045908084437009999 -0.16985915628784820086 0.11666989580282646766 0.060773216022359258237 0.30991216627598361377 0.16388530828877845291 -0.20349291896017593362 0.038365024059388928845 -0.25943104613221873445 0.015625322599707048427 -0.21557274300799353361 -0.075300734248124390202 -0.29032604408538403851 -0.10233102994242865291;0.089064878807506964176 0.11508716867489707236 0.21265055118457182326 -0.07500001159110177007 0.25813401427454485404 -0.00064245473026803136089 0.01070409223508912884 0.12606652991071071179 -0.0076211177844654970706 0.1866895212155144923 0.043958255633104535709 0.058868806728534547879 -0.26587539333577253631 -0.30085069733945174475 -0.27494768116733742103 -0.2066577634540366637 -0.088695532288122949649 -0.061158980990817748968 -0.3064629934473741546 0.088401072900617536088 0.13320977987911652995 -0.17006956918383883681 0.05425396124861737307 0.20478907474107435616 -0.11853899994071781521 0.18419227096699528068 0.031527952661081215524 0.06649099664933952325 -0.16497255399041066415 -0.13841163079139348624 -0.047040360437415405792 0.17335384317278912381 0.0080535561413761381361 0.10104081346942705988 -0.040153987210312908074 -0.16031046125492734444 -0.070056928137366414333 0.31624291849054864123 0.26621700299260087075 0.22112925216109000082 0.071460300761880479747 -0.095168246304172143812 0.050235169445638772068 0.0045468932566271030166 -0.027322819916666785806 -0.058005189209422360064 0.039106328268990332708 0.27947797459766066108 0.18703807153207946401 -0.21080719143038700869 0.1444266286800924004 -0.24233088699745186645 -0.1764498057444995327 0.32295681733482878295 0.093833727600698316196 0.092132160151898345735 -0.20452839638506567499 0.15929173154289977266 -0.27384423717299832823 0.033176525642718800169 -0.22971912045076037234 -0.22322455792070949876 -0.3120044947968704796 0.12558695585765086711;0.11660297789602289131 0.055201836952825142357 0.20270281522595054446 -0.081015822139489324094 0.087127443111364014094 0.27754142652997887408 0.25998934089501241074 0.057302681257331525289 0.18957653545347985524 0.21081315371514539048 0.3046641900715457707 0.29609211470515067743 -0.06458000309607793421 0.22190720822193543693 -0.11234125086773290303 -0.25689028531560548219 -0.055230119352564437107 -0.066580334080515196638 -0.052140099659647019814 -0.023175903725977869269 0.27531719878370547461 0.16442424083017537217 -0.056362220330724757678 0.042905001150502740381 0.1009264890155527894 -0.12890152382395708708 0.036007859763211441662 -0.17079226943109560022 -0.22389827435470555095 0.15649323901019793204 -0.19919366896695922531 -0.21010961377193912436 0.060449369800353709714 -0.29568066622999067405 0.15893436684400896741 -0.0077165637177090276935 0.05528425527804998324 0.15792779190446515347 0.33103463158210733042 0.21190753302107090406 -0.19872827340040549737 -0.3329597517204482271 0.22449520716443913115 0.33522456399630651269 0.0099509706132382379218 -0.06695555613684396612 0.26477898653988013455 0.35944603630400812078 -0.19769030417226712837 -0.32319703761256812768 0.15443224084451023792 -0.015558784379076390919 -0.014521150573290482824 -0.22620074655326380397 -0.15854000258363731835 -0.12790284387799619181 -0.064493646574554308604 -0.19848386363466771765 -0.070025108604341967933 -0.020940501252334365462 -0.11775109620869930738 0.21743968704498850553 -0.085958905275972996574 -0.25284066325883680637;0.24331852197144124283 -0.068843492811497750128 -0.061052875216874691322 0.096257639624373919629 -0.05108915967185537893 -0.2211139211998331966 -0.10743141889483515117 0.011336119701447341587 -0.097994309554821704134 0.23180710798168202569 -0.18643836144187267423 -0.10576722089465348531 -0.15143328667153299616 -0.20077344400119498391 -0.09935116182271228058 -0.10951982362051752851 -0.057435660308066564805 -0.10285802690340033194 0.26974246849822197669 0.036464673750083886894 0.1094137956089260566 -0.2294903985448691619 -0.04193423474456574318 -0.24568901439641077644 -0.14214802986344388103 0.20333099538425911113 0.068621960140905643999 -0.18279859339319112777 0.11644976656186814545 0.034047580727326276495 0.18795458326595651521 -0.14007657741390677764 0.25370272306326840939 -0.18119113842678419291 0.3151080393196759033 0.014182526171329571177 -0.029213748382157803118 0.21748380027933197911 0.093044550355652483331 0.25532943310902650458 -0.2070294301179445573 0.22238579480056294702 0.09915517578981042357 0.19647651498826146366 -0.24861099725587315623 0.10207241810615357014 0.15385888263004138254 -0.2103047275328381871 -0.10309856910470381608 -0.30955926544112633003 0.038449442842396035214 0.25042369398207348086 -0.068762908172952899588 0.11269981292325510769 -0.028522674853832225006 0.35908954542592286252 0.069616499184747590578 0.22474746752421989604 0.17410748209274912179 0.071394487997927039147 0.3117806358977199821 0.17466599684782532775 0.14725113879745210799 0.26485047065867234339;-0.13212727083228195668 -0.28628244480345710343 -0.20842660589992947906 0.0022850923173984133939 0.20392329840835426991 -0.17626156251272237507 -0.26643678058373582163 -0.013586839420146360272 -0.11542268533625973936 0.065908305835386038485 -0.0031424930369555489733 -0.029688656986928650683 -0.24413679041866012676 -0.044950325629930357185 0.13944255449104586697 -0.15657497663947966826 0.13061052689953525641 -0.22259421392253958549 0.11802406717798036295 -0.24187392482999162113 -0.142297996280090433 -0.19125817243240003651 0.040755135897207077356 0.090083615732580252233 -0.35080200487869850345 -0.33539177974608536115 -0.29218188558147550893 0.08647648577984384799 0.064455224534341104548 -0.07398942799539981463 -0.135257194094466765 -0.31264998581226427499 -0.12115657710976338035 -0.10223973385318843587 0.008207106088407826669 -0.28845873911944341916 0.065858139571848994809 -0.090859765093412730996 0.0065812756852867059995 0.14327632995312944431 0.27949857831307034495 -0.17022990334082502284 -0.041849572041421888302 -0.24757869821165878754 -0.008390019524115052002 0.1206432899603134129 0.18772061026866565525 -0.19884416064434684568 -0.14780801736990575868 0.049955477426809252739 -0.39409653752583195807 -0.33041878245012634707 0.091693245742262188824 -0.030852970265104459613 -0.052669813855825600712 -0.14697401634510759427 -0.17396337120246438412 -0.043919927875299205611 -0.043288486883350039969 0.10583709761219717294 0.38366616317514556922 -0.065105759009742983356 0.1030763130062725963 -0.007356158200738011077;-0.13997589339561036792 0.031166752275335884992 0.202881473844849336 0.043059699669244062836 0.0071399078926553324886 0.13029407252518215854 0.019719405912196480424 0.15636129629995884627 -0.16574830374803864452 0.27766385476058824677 -0.04871780286054239878 0.053737374662734524455 -0.27692628950282266453 0.20919287170067552006 0.1218711338716240572 -0.15055487576405207628 0.092224550755293163706 0.24007861611658776191 0.042604177021941205816 0.11507779566135528659 -0.22024557129051547388 0.21010489689175504413 0.11899010499833810595 0.24678848147721674233 -0.24464828495045923273 -0.21784928108417914161 -0.01671374219657365684 0.16492039510755801546 0.14108831686372569347 0.16757948120455481988 -0.00068414124600605979651 -0.17631284186585624574 0.20848133012762645744 -0.070154656099368190025 -0.084174468181841946568 -0.16804128453048355896 0.065945165453994966653 0.081516438530660872974 0.1172292654156003866 -0.096348901212679610717 -0.019045503212973349111 -0.14476856759283207587 -0.17603479614227637851 0.1210985185185955576 -0.013421446235337853442 0.30984589567951115185 0.29758951076498402211 -0.27431958639482301177 -0.11742782032056157948 0.21825285214519815624 0.13639461331239413622 0.3181360786082891301 -0.065350286577186278425 -0.26888711145366689381 -0.066742409817052039678 -0.20137021782676084447 -0.30687361269486634896 -0.018307685647055510492 0.20870106751795686195 0.0014834423681559371234 0.24007437358719926901 -0.28424292368866660441 0.27438126121399419866 0.085086426780802637548;0.10383561710036304238 -0.15489677349353422886 0.29854771060640927782 0.28028914020749368108 -0.33362291555228917872 -0.23122124524077014573 -0.0091938741170070129027 -0.21143007440615782522 -0.059769615955325858248 0.18649587727472177745 -0.10195084817321448112 -0.32049988721837113781 -0.30626544982678860496 -0.19575811528478767598 0.20597562273797445642 -0.21078807659502013516 -0.014280082047902438458 -0.052363096642170502137 0.21493452119324277239 0.37500814595660403317 0.15861439654487002882 -0.18770720519128281101 0.026772264894305036753 -0.11672304521538211242 -0.19928803709937165101 0.21501120011546442923 -0.071796530660039437066 -0.21379411672053474924 -0.25327248168070837231 -0.10237596579199441382 -0.074622546892890093129 0.16264058490415631009 0.072928853410609104091 -0.063307896352559997477 0.2645697591347107025 0.14893260903470326162 -0.11775465632820912576 0.14498071738533391262 -0.30075810604307295915 0.002012556266223515869 0.037940201645272376985 -0.18047688875689157917 0.31318425941456168315 -0.15224711380408725847 0.087902822310248582283 -0.22994870612780970998 0.20567178592988502595 0.093955780689269380312 -0.017054957466808205735 -0.011659896955671315844 0.036436790706871918788 0.19788176128182369262 -0.045005002572481599132 -0.098268595445279854905 -0.049830511364783350303 0.044797895555859466865 0.10302636477208658439 0.29292883559006777094 0.06108780087240778256 0.031026279910956071351 -0.3407098488203705311 0.096788569263255047614 9.6483463560537467349e-05 0.059819110894204038931;0.14734483340872031598 -0.13136842737478202081 0.30277371667228436536 -0.039924838117811799199 0.061877725196920009554 0.087844391691771092634 -0.067263740262286986216 0.10362405572753433103 -0.078921640425879166503 -0.030559000176586595399 0.19860576412239536181 -0.10112051805879972155 0.11402081903020575004 -0.34166507216736025088 0.070321007578825825424 0.16697478515226815698 -0.29615275108785904523 -0.066052424289997219153 -0.072987417675910631898 -0.2569940021294842003 -0.31053943327434613275 0.022027287437717459062 -0.27244685868428497599 -0.067985678363411863878 0.0079340349898610901952 -0.15732354175872079183 -0.038542882903632856573 0.057873773006477891023 0.27717917272188447031 -0.24083247184650771744 0.33909136070866585655 -0.0909802971194912935 -0.25300818444540540408 0.10612805250408671731 0.26625072852743092433 0.21355651878251113995 -0.1931802559582878609 -0.13237477665007163496 0.16090766658817987067 -0.034927929746417479828 -0.083570404857927077513 -0.27778291059161203114 0.14040465375609939569 0.10180134234988687247 0.33647254095448353439 -0.16154511396387874478 -0.20458930534018007763 0.21797411933952715035 0.15030260007168627645 0.23081166770022482071 -0.32610058082684123537 0.3238592397523600841 -0.23183454030319153305 0.13596960981891717535 -0.20175310631006221351 -0.059524142394132492639 0.13293459414014383024 -0.28188937990462931138 0.11949495292033852911 -0.2991700056681589337 -0.14640038226094037599 -0.090627513226972086779 0.090394585042080879966 -0.067705255151099263955;0.056054074413225032925 -0.047713640599602001602 -0.24392677874715887332 -0.06840114539813044181 0.040775917639968614625 0.088292305062392800741 -0.032420493855535761907 0.19308197882295075054 -0.17678688848023860203 -0.066062937224789189394 0.01487437565139874962 0.18290186424121632203 0.15900511838732225844 -0.28344302606540477951 0.046563629570085252052 -0.055617709226555775426 -0.18373120731576705889 0.012424610385249945654 -0.031208736914515453759 0.13956879626473558953 -0.24455120569480498505 0.039983428044876923035 0.079862489685109491755 -0.089599902678635379161 0.024725176327162281392 -0.11466760881719893772 0.17813710138925739623 -0.079143873862639130268 0.20810113553044362611 -0.11503482082965188482 0.15470769467356970672 0.28062412094273475605 0.18660509493261387415 -0.18805032703924157156 0.22079328149248458879 -0.28100684872680403714 0.01547785259245048825 0.01054811943450974232 0.08941654087092225367 -0.16280969842700540595 0.1031352901614192713 -0.0051632519726503844915 -0.19948753441753100391 -0.054365451206631366932 -0.35443552543485518092 -0.18379679133718826445 0.21792388163411810509 0.130010435303673344 -0.21047235254449148112 -0.38549680905937516728 -0.39358164515575289055 0.26032093726141403156 -0.14542061813430101624 0.2613830610656207587 -0.05252466263111316841 -0.18353036502809172426 0.045611146214916520325 -0.093959969595410003373 0.077190833393250418704 0.0036286667507962997066 -0.12397964036311237557 0.25921007356553837919 -0.17777406873898371487 -0.23739860426085496181;0.048525417039592948221 -0.088870958453286422185 0.25893112022356062907 0.0085670276059077732356 0.25724846036001863814 0.011074295782446046815 0.32407597382675534803 -0.13028646073235608527 0.24027098319591316811 0.06990633904016207989 -0.29598863195409114146 0.26112593722056898216 0.31722034081868660804 0.042951136293698961854 -0.13996891733630958954 0.11233221903094803285 0.26043525580552617793 0.10465871967485923522 0.22511932913278326351 0.19570569220732261795 0.12350087488623021081 -0.14625412720285382862 -0.16301610403101185476 0.18479063912345583542 -0.16734381749078314217 0.26955530264583899003 -0.013891020779659530096 0.21067347079114273622 0.068072296498029344347 -0.032474729487200253153 0.3119625824363049249 -0.022341878573650216649 -0.20816963371708463448 -0.057938090759921991035 -0.28934634619961052682 0.085824635359523129829 0.0084885232355171921087 0.23052239606853036635 0.072925797732245112304 -0.21486488738320236314 0.049498179594865021613 0.28752947315238919224 -0.10259124273708207509 0.088440133779134830205 0.10585221552524816391 -0.13603690288291891974 -0.27408320743291825217 0.012069209055918281304 -0.1856869059820506207 -0.26345414124141636192 -0.033852210747645827826 -0.031778304391084762071 -0.26420142160375725826 0.10709186595727866742 0.0042328515382944976661 0.28890637841090738291 0.20601337380433748514 0.050751859897532690391 -0.26872223940058403979 -0.25126867806927899451 -0.17650215380159761658 0.12523019074960556329 -0.16378227556963154132 -0.13755174386942783937;0.19238276551783120571 0.19882395681428929879 0.079065214596446706241 0.073581440503066558589 -0.24465773358389375502 0.010381420770889385891 -0.1698780436111606007 -0.16039559799886568547 -0.25883864484914403947 -0.23336665306586598656 -0.17793352185167074508 0.12449798878091131171 0.20861757858197418902 0.21949516551590453339 -0.26555017634784944258 0.003269185164434609131 -0.0050131805196306179415 -0.1571962770408921739 0.2342203131635110791 -0.25581815180914851959 0.0050140903188448434497 -0.10485404998316143199 0.06845685902458091554 -0.16661040789206113533 -0.059220544669112550051 -0.1445657011582460183 -0.055343753910439323629 0.18407000619643248962 -0.23612668180132476148 -0.30118538307083703165 -0.19237435351498183289 0.045189690845012786546 0.33427313470699876463 -0.30527397592354754696 -0.023941005847145709062 -0.29201351867927249906 0.15385677558215582472 -0.10120520233445742808 -0.24410620019637510603 0.18438062512463104792 0.099325956601461262707 0.081434241830399822781 -0.071219928373089672058 0.11419269671825758861 -0.20623812222425297325 -0.042669834049967096667 0.044126871350218248302 0.23355527634528366887 0.17045863824633442074 0.0084187185342999848459 0.050454654164960907603 0.23127523504419095213 0.045373635041435121662 -0.11394945790624018411 -0.10590234134929861487 -0.045819008658658191835 0.11702392422627150292 0.030539693207882138287 -0.066677095248638351688 0.13964711627593062726 0.26755781485598117975 -0.076990303695448750188 0.29648441877570613778 -0.14675871788633668147;-0.33583604381716164466 0.24379630121692544287 0.046331787685499697949 0.1732388774161506273 0.23495618974385018563 0.1088245738623566522 -0.20224162164650605344 -0.30538119759360582428 0.0021602684314583095286 -0.19613770652456144483 0.040449610526627051421 0.26524418742131122828 -0.29435214067676918059 -0.28316288008307610724 0.14916434462946534523 0.095728144325771175049 -0.16150631099932433177 0.12672195081399909022 0.096802569791041445657 -0.13235125252044013799 -0.15708442277501288853 0.065339213302571905184 0.011848439758970244831 -0.040897494984045969224 0.12644138092886444968 -0.12189581694440823623 -0.026139722995508998804 0.17036657475409172635 0.14713166533807972569 0.17227607822747201261 -0.0047359750540898453569 -0.093666544686533487196 -0.19752408115074820971 0.0053977584608975144945 0.0044195956752328350442 -0.062963717678952035861 -0.24846018091106100711 0.12834126100575030116 0.06852785154077860319 -0.26663691960505953027 -0.0046699531373141159318 0.28834394514759642547 0.066699922664073402201 -0.22992123036644848688 0.24778116736543520648 0.11969114874403237458 -0.23213855461466484376 -0.11776042438558671777 -0.15808735364885909136 -0.089196171645677127526 0.1441775575349995564 -0.22306890090089281919 0.20994565011520099906 0.0035905734549400124267 -0.082352762554093003611 0.24253299679619066964 0.26649530541668753347 0.035230810214219816789 -0.0047711922719727364872 0.34218438256736755099 -0.30903418800110576958 -0.047105234062145333318 -0.18013382270186875656 -0.033162887878092961458;0.2041768809009593677 -0.097011340828702968819 0.10486280950414546276 -0.094299514280543811351 0.17076744487745673662 0.35606982567579975596 0.15474465787371791126 -0.23216247194559314071 0.11917092421586154838 -0.15336201518634581809 -0.14788015797003595253 0.02741702997834999031 -0.026807634935028953893 -0.14553915326287639176 0.11194917719458102878 0.10943722368879947593 -0.054902713763244695433 0.11240802812452041493 0.22181628973135927851 0.054010010762038998533 0.094907744637759763884 -0.14349666943056890722 -0.14936397799504355643 -0.13680013243128694156 0.058093937605089671083 -0.064582514338853341807 0.1581714008725713938 0.022686369630581463414 0.28391821479704865139 -0.34482468138207977848 -0.17787272810203552664 0.047792594189261954074 0.039986998804604975688 0.2101832178565845588 0.014819344784494929007 0.11063864546421320334 0.11643863519344031798 -0.045981444640616819797 -0.04122262601707757379 0.091346078551120896138 -0.098092372159046425928 0.1289174453464487502 -0.15331488937088438851 0.22598851098059491438 -0.11151755638758351075 -0.22756958107586588991 0.13461509125910658957 0.087855803025023590513 0.14841908036295825557 -0.034438829025391283489 -0.27048401794112109098 -0.013394513504230296658 -0.24857320213132255704 0.10870935849193108513 -0.027102084952365722986 -0.24677920119182281122 -0.0035604100518947887771 -0.14411600558490347823 -0.2499531874067323356 0.31845936008362590863 0.14133449345444670797 -0.13893505615979206969 0.073574525164862486504 -0.20719883797096874667;0.064326400041775685934 -0.045725559301616570951 0.23197419413590919524 0.058849743223038188111 0.10390918166943062528 -0.14033024399222715495 -0.12193584580567747022 0.34533227695108381639 -0.21119583091639945738 0.43698317777056183697 -0.013361575650641884655 0.34988394661567084887 -0.25140957197077895557 0.097193887852508237257 -0.11361666079798130036 -0.17760312088716118106 -0.20570952693182417703 0.14249965686447002566 0.18209674720818752602 0.35755852072428961907 -0.025270334259554383394 -0.20965573508758361676 0.010994769377214464248 0.005913155440778896689 -0.094537767090342381127 -0.30013865597122096895 0.17731121866457003056 0.022648580080714096618 -0.25438175856234307437 -0.23758595136695043193 -0.12609187152820050537 0.21031603821588248926 0.06526105857482412953 -0.11992185375765219979 -0.039922466926319608027 0.14267797712501345542 0.063171234162675907187 -0.041632841169510215185 0.0047785763945723744306 0.12592532670305567333 -0.09161286254332319523 0.1486335525276423486 -0.1809287327799121714 0.18647816773509012789 -0.18875146765334768761 -0.080618566388266851841 -0.31919352111846654996 0.0073550593529425195571 -0.065080405945756758523 -0.21215871017302070922 -0.038651750532986237086 -0.058448370000601580776 -0.11848642054300320692 -0.067067295598148835012 0.17285021739536568508 -0.13209775479646185259 -0.16130440581085681018 0.20615287138247734289 0.18788260173576798451 -0.067414723421212435772 -0.13146255503410511634 0.16067052116563723674 0.35037730014414186774 -0.088908812172519072203;0.33163818715085191524 -0.14032167844913506771 -0.11343178176236667909 0.158205612086807057 0.13022190423159965555 -0.0079846152765778201366 -0.17010901390636401498 0.072548799211472642101 -0.16648752121204288268 -0.02354185007507966429 0.24569809971698103324 0.18839836325101327885 0.25704320833585952988 -0.15518317035641265855 -0.0026654075092786980519 -0.15664225072267098926 -0.12104416035824212827 0.17924376669657829386 -0.29559988617229487895 0.080718621621808789302 -0.18050998287049579982 -0.092645397725768380282 0.0054648580130236502558 -0.3084788231413820303 -0.11531368260320662422 -0.13960817104256409427 -0.21512760306437764268 0.083676747674609974759 0.26097227255063393248 -0.028998526859610580797 -0.078499868614885046081 -0.0032292720061619585754 -0.12049870394410562568 0.079848149350066802143 -0.15674832956112894067 -0.085529315655452145539 0.23698552771167713527 0.27496721349585184768 0.099624527920113448154 -0.17776862155436226609 0.083718927771693499307 -0.30134223244019076038 0.15043513988214818333 -0.18539451694382719227 -0.035410256832728019549 -0.16335913080374203643 0.16953916888482653547 0.13274592036354196378 -0.21413465265490261302 0.26507693763019007926 -0.0053090984674466368959 -0.059770679896426127942 -0.16119350194007822652 -0.19737361359963995211 0.026273959018831252038 -0.073020246269600824762 0.2062894568360120473 0.14783612325357994854 -0.098729484004530659869 0.20010507645900621476 0.24464863980135231891 -0.16637428370996495963 0.27765209537624097047 -0.18146382588887552401;0.045763381154665556949 0.018713585977882141176 0.19082867332314748521 -0.13085046170043679314 -0.24074522923269245367 -0.24001222583978007452 -0.057864950738458993673 -0.079274332235341374298 0.34194952824228397326 0.21035157175303562105 0.18119531592920462559 0.049949871947042853715 -0.39720431484408447176 -0.1992744469607766189 0.25977332229667660091 0.10489040193432733195 0.028048195470117553985 0.091987993089405015179 0.024438082329832081646 -0.22759466381330195617 -0.21012963439604817606 0.313215601843775171 0.25554205667418594672 0.019338021452768548725 0.12037270118101556227 0.061589780899688514881 -0.16585527530936450269 0.24158163126210366323 0.064726046802795228485 0.3424301671052573659 -0.13585657694310523946 -0.099606746820707872669 -0.10260158229001273278 0.17245391624412151343 -0.14367896220464551615 0.023215114950306481312 0.041888002195390038052 -0.037351688469507933477 -0.24785327659774117337 0.21013911019011149994 -0.009967654723089879043 -0.087775370653244838559 -0.32062367493147525543 -0.16164250142956249068 -0.31486657155229619276 0.32646039254246517203 0.23779799801912396284 0.23127144176127609199 0.16686018351191023168 -0.085947211188102390356 -0.10828646788512934218 -0.066079999775759790115 0.27048802454912312943 -0.18522987627285877887 0.19358378970900375071 -0.03662657815563416519 0.16690735033404785481 0.11102780463163423874 0.32851393195780814738 -0.04425178249375408962 -0.050964371083044968103 0.26056413901728875393 0.11008577672710138928 0.034460593537226399952;-0.028637829120497448887 -0.049882737502370530502 0.25904346180257542542 0.10563381041081888745 -0.11076123392188706729 -0.24053552172016598454 -0.28406023425245624514 -0.11162659716800771292 -0.15281276171123717167 0.048469328945441564338 0.047824001048476928732 -0.30332294212726002014 0.15578676958290427201 -0.19295809175849010231 -0.018784336523521221601 -0.20594608679108453164 0.19620374888338493191 0.24810820558483742682 0.062802747061667704709 -0.10629497254057281019 0.10350876759298807683 0.21892296515307982374 -0.3255145469783424228 -0.032872009732980704555 -0.28904530635289277241 -0.18687819286970933086 -0.1658089302070811788 0.25969554631716140758 -0.16114564084678958955 -0.20633891154601474716 -0.20505214313128067305 0.15902151584583890109 -0.24902103571355596601 -0.051692843289051618183 0.014141426037352586645 0.076128813285527022203 0.49566695184154763165 0.15003565845366689802 0.095454741162416437139 0.058428594924135275612 -0.013599406723510468198 -0.06478671563535966238 -0.20384693688414826096 -0.20622163538940446736 -0.12552674950009579113 -0.19789217064813074964 -0.11011327920044437778 -0.067289517138234153371 0.18532096379613599568 -0.33968374220993585721 0.15851786070453199873 0.13224907204692862295 -0.10981033172607090886 0.0030078238408775929968 -0.17341181146710157868 0.31401282515441997223 0.022087816766489153097 -0.14500417959041517202 -0.30571816496760167992 0.20896911349956090453 0.18325131122341623002 -0.26607829644332919861 -0.25482929677681842584 0.09740968625880327969;-0.14306564978155239531 0.18853314181067504229 0.20584853956055074176 -0.11319112051346015557 0.31594721223071942084 -0.24430326721517681143 -0.11286003362538302164 0.073502065369769817305 -0.12863820253900717927 -0.033774098867145829761 0.18437561596219417814 0.06733815985621766087 0.087736133872797411604 0.22570970965085146442 -0.097851249920988550568 -0.22151025123852838283 0.086727148593087360906 0.0010686684988689318897 -0.12851281574024359111 0.12336877151949418585 -0.075314093530055623016 -0.023867710685574083929 0.020573369051279433162 -0.30440208597674017765 0.073114252216222738734 0.14596186257736210035 0.085190666800190731345 0.1428092765022342947 0.030832543957189727235 0.085241998014349576462 0.10648741843958040021 0.30233336463668719629 -0.3713845799480394172 0.065039977845911825516 -0.26755697743791739818 0.2109889589867044446 0.21980141830507649026 -0.17702071097589644477 -0.27832390690394709365 0.11714876675569789455 -0.21978513074503416846 0.22428192088748497013 0.20543315435481651621 0.086610936913157215988 -0.014621999187934150988 -0.024449569904837809703 -0.023267729173564746792 0.15764207680307848469 0.15591575810539573532 0.16320603257806867714 -0.18439868251763086304 -0.045659736382051160919 0.063122001122728921274 0.23858497231916250825 0.22202124270882855894 -0.17990567994744824376 0.33362058779896885952 0.1232139281018208854 -0.31009408099520113788 -0.036294664183734032248 -0.11895596241036747454 -0.28497789416830904274 0.073639397149026564193 0.018548284510824065291;-0.3076883458968918128 0.1917496057013637345 0.32557211446031536495 -0.13743527792611812122 -0.15058381238839221861 -0.26195987733090053684 0.21866590128956331363 0.17567244750408028686 0.32052183925364619022 0.24654076561790400079 -0.12044093868334296293 -0.074191437655267339357 0.09974909318865847474 -0.033449316835038260531 -0.10124713476448207738 0.11848341670916806567 -0.22953963581546815709 0.062935104728200783053 0.094466765238892969059 -0.11825342527483215238 0.058560896684710581073 -0.18261440557143590602 -0.16256331090310238707 0.4019758226286157532 0.029228972729319405849 0.07152082439973529715 -0.039700625625271920849 -0.18973649347117946262 0.14353601736793111798 -0.46889416045770765384 -0.049663160912451154161 0.18574833827400116792 -0.203606431749641964 0.056312477116340957373 -0.26203427665396755719 0.018187647421615143334 -0.087549721901173702121 0.15130075943625562185 -0.01610503467866166924 -0.064373274356886334147 0.089822483051652565744 -0.11629581370258673667 -0.085836229352234408307 -0.12069590451462253178 -0.065247666836057857664 0.21691652587803364471 0.047101493920285952832 0.24957335442275305204 -0.04034367555605516964 0.088892853423913620325 0.10641654177466733366 0.025060347743035504831 -0.30489241360863039709 -0.088142704826739831647 0.31774754668794724655 0.1322798013451958743 0.16715725323683761072 -0.10067809399689033045 -0.19300545370085878116 0.12632242472433399816 -0.31171195854266897651 0.14318873435886753098 0.070011895806271096099 0.33987893413147601818;-0.14144495181761065905 0.041394308923300267289 -0.21233638126041595728 -0.14782101558063709401 0.26149534419262671081 0.24243247436187551069 0.1384602864796941335 0.27837814706798080788 0.054972749125080148935 0.13702590714206797085 -0.33162278576274106801 -0.19259307783620807641 -0.0072156766051341440435 0.016122218711457796114 -0.26890912401705763246 -0.17714006867662063227 0.035886845887240892417 -0.070808789192158008707 -0.13783765961508509523 -0.17882111581063603323 -0.22951245017033514162 0.067865186232845792214 -0.014252651449343615997 0.1509960897070697361 -0.14067004147574130313 -0.054803054360897933417 0.061375902459745897144 0.28677649763124529736 0.23673669795211482736 0.1591167759421749095 -0.060635287978539502418 -0.05664136733894236525 -0.23928373762748264553 -0.22428468743087542903 0.2094467578316878964 -0.024481391592387494877 0.0088457669217559334318 -0.24664821301514980312 0.17825098965751423608 0.14253786018365605104 0.03165626664752735353 -0.051057242097602449638 0.09153527662694675715 0.071610537180652467093 -0.28919948848018178778 0.14225298951477999276 -0.047366904976912163616 -0.25583948896561059527 0.14780467942512601209 0.33624455262263358568 0.02094689798387404725 0.12303235533525078149 -0.33329749521944646018 0.3821586862944897911 -0.10179056005831024767 0.23060054269321134113 -0.10901632405820459171 0.19095708761880433868 0.1931509061425755458 0.074572086294244568916 -0.21108880137738325611 -0.36507316263249928179 0.1426298976228998483 0.22541204692665614551;-0.029082471360397654792 -0.00092162287423045710297 -0.24860210771418683739 -0.068604597452813484426 0.017554216828107763876 0.26306419361507005217 -0.044103704706856525219 0.11213937578391730554 -0.060272888817880614087 0.24377428653378557799 0.22409219208108269172 0.075572888463503365419 -0.38835990717773133385 -0.16761553887733510182 0.23235020633268013701 0.082450581760252952823 0.16608340881723271387 0.088550464048490498681 0.15897245666794715402 0.028779936285637460619 -0.14094990635670204271 0.11432820881808113123 0.026027490705433111579 -0.42538766354853030371 0.21208095689699987818 -0.15990617156364220208 0.12760654865670648106 0.083264127602803716943 -0.38020047844057147657 0.15237881753344420521 0.04424817196665661867 -0.13225190821116666884 0.053373779319483644068 0.12590942484507802734 0.0084883014937117747672 -0.092638823508293610676 -0.18641579043520048464 -0.13309228363502723091 -0.095390188700063369143 0.10261622510930823449 -0.068409785100534400981 -0.076006292546638543062 0.084063346422397100532 0.15877662355341540246 -0.4147843214315897753 -0.32129149195653383675 -0.076439725200686897688 0.0019419788028497042727 0.26366012047237596949 0.10758533791798113866 -0.066174471223256897678 -0.25133669060848634613 -0.32142100528936207171 -0.1977499430431771954 0.24260834402428313461 0.030808883028287659123 0.19192016352162283299 0.0078802742072146755858 0.045961912648200070608 -0.22838318707157809206 -0.23094561042297262476 0.21362111202086253581 0.17143943436007377801 -0.2929224777560300863;-0.25755355402945023791 -0.12605486952861930106 -0.13607256277042409365 -0.09729219362668869997 -0.19540907327346151989 -0.085431193743727984469 0.24568860844966791679 0.21241298997889310196 -0.19621237417245773749 -0.10555474421644418792 -0.12717707663602986767 0.088861051368364793457 0.20089383084069095675 0.29064950285301260902 0.14624876445058934693 -0.00066432985069545978304 -0.20609727379369913169 -0.012577091550491630023 -0.070848860984604716817 -0.12442277666496538713 0.14867518562300643947 0.023576283318061011518 -0.028184329186043525356 -0.17967814917561367172 0.082085402653512759552 0.1256375231944029669 0.14908829145312721409 -0.045982117961786007909 -0.17218467797435588196 0.42733337745573524158 -0.17168946821695718619 -0.094754324989860763684 -0.23069407636976488329 0.20319014093204892935 0.11386302274416644498 0.32888121362762762212 -0.032720202695722393205 0.068089951159042247375 -0.18614119637262177553 -0.081128756988573816344 0.21223682817141020784 -0.014518162574416574456 0.17208921536112675721 0.17782573819883143451 0.31724481052036307416 -0.051213290732361471669 0.16724895519447097181 0.044978561444212000753 0.2856371094942020683 -0.11517016295420275107 0.19435187998691952349 0.087928476091949106519 -0.27683765571903506952 0.18552157207053313059 0.24330813901240672115 -0.29910327096260141966 -0.28854944460132470052 0.22275485072451683966 -0.18572184973521685403 0.042182642889025658006 0.17810868231721979638 0.19457397755824645813 -0.3058580336316276127 0.26992359940557153486;-0.2471709103120227069 0.26491123984099107513 -0.30593658367439829915 -0.042455050715547046347 0.088242382689671022833 -0.25064117134367758233 -0.025354094486588180102 -0.055609170384560827061 -0.018785468213491793299 0.11393489252154516411 -0.034060066658261119177 -0.052893990836358442675 0.17192237127976425781 0.21407466125999952133 0.0074121943563883003689 -0.30979453747795537844 -0.14733634757134356219 -0.14537543432055824444 -0.055982791248529895078 -0.12094316203711595603 0.11925674579223984051 0.085776973322902141939 -0.20060455569224416861 0.0212830992837574548 -0.088309179756699149322 0.12925223518645681531 -0.24066418139819320543 -0.23342821803509150591 0.13034455497419755732 -0.19975301521388022508 -0.21185731222526016371 -0.16475367462733472856 0.15161062687983847819 -0.14092358575591437675 -0.25985683483852850539 -0.30648312606319944029 0.21025143792890688133 -0.27948566869784124966 0.25085964787777909057 -0.067097232468830467211 0.269776709977909257 -0.234872225981925975 -0.00037788572375461256143 0.39113589756137218112 -0.075667194086179279111 -0.096269904243769036101 0.029667411258866297624 0.13414843850274266179 0.037010167321237186222 0.28263043728638193031 0.22180047056718898979 -0.059420404238637515582 0.0091907640788659941689 0.26840963349938345983 -0.29536987222704336187 -0.31825186716698317113 0.188791088272647678 -0.28432747084149240235 -0.055385830503291065552 -0.13990413766693918229 0.063647107130480287673 -0.29656853756507794984 -0.066500709123776702292 0.10484034825010732361;0.022949376064499420191 0.098784014048018203846 0.099427122256087963059 0.18905347147716147771 0.19330271991564945688 0.15057014618053685129 -0.21708019833893160699 -0.20514440869211175711 -0.057003384215804114854 0.10533546576860980393 0.14989870386967854565 0.12128257889577785666 0.11036675411100221877 -0.22724280868214641327 0.12664956642248290097 0.099515069225403443576 -0.18193340717119604877 -0.08375885854554862564 -0.29051934664634826433 -0.31892447097570064685 0.17589702573237200878 0.05417095992958367856 0.2112335363290239465 -0.12340040074663001513 0.061394179505406272501 -0.10431911818585638818 0.26787782646453273117 0.27466066856925885897 0.15580940732688511319 -0.17260354519483644964 -0.087947930572846458319 0.034878405962440239829 -0.20066950026322785683 0.12165981987581554746 0.034999160428352944774 -0.30141306928250660713 -0.24701867860466761306 0.15519408751842347916 0.043364558484200961541 0.11575721321384127571 0.25865398956538582231 -0.20400553421488587524 -0.15788954675149172169 0.022358707115442820468 0.17626442402214434479 0.26402914561003509863 0.26727566181848166904 -0.18145930212297328721 -0.27049725710880778706 -0.27165118688452877249 -0.21783273773688383024 0.20516346861701584281 0.29691268252381380899 0.098045937620718864869 -0.34665712567184359116 0.077668426503350873613 0.055082776237088695859 0.077689736482643712012 0.31208500847993037031 0.012209889042102330114 0.03414030328049112023 -0.049053504135725893576 -0.092436715410851869046 0.095830365190688923671];

% Layer 3
b3 = [-1.5322322616305164011;1.3523228960744371197;-1.1761702320105027475;-1.0666959622685088238;0.97655899576646065796;-0.75323417561246608365;-0.54891842374538368787;-0.40130167684302853193;-0.24689141822501831092;-0.058749997144224470891;0.047346279170042374074;0.2419581590038924479;-0.36098082418293331308;0.60004189944456542971;0.75661020670036138736;-0.86868042133338940758;-1.074103738819328191;1.2833068347480240945;-1.3711193139629020976;1.5011317243346751216];
LW3_2 = [0.24646664995640596429 0.41077217681305688846 0.38157920726861749294 0.26364788896222707271 -0.17453016005223923046 0.089061436535338475706 -0.050892700748582646308 0.31246750155620067746 0.085383052410599735715 -0.049191320760040971316 0.36815768952204980247 -0.43213646454944987241 0.47720908280973828308 0.19029748875183807866 0.15933828096687291387 0.36050166473011985291 0.40564059057898016469 -0.044369148670855618199 0.45553363423903625584 -0.088210080553344602516 0.0019191786829222165067 0.18304710104978599849 -0.066651301994678516238 -0.22673462954243961409 0.048343411310062825437 -0.080855956139205709121 0.16644050194647524998 0.40131162146027354876 0.38229356116808438371 -0.30956224575918522834 -0.16210227941324531487 -0.30415966279013856299;-0.29038406167115932144 0.22987273853209011509 0.23417870675475080389 0.33249438932922426027 -0.23515241967656397293 -0.19867135423264242755 -0.22360659590406384289 -0.26349858122372527003 -0.21212347732016598179 0.13624797939242641598 -0.08135255508078415021 -0.22008582328188222577 0.074783803753954311566 -0.18811069381955997093 0.17481544965502643363 0.17205729329574989683 0.036686928485924905075 -0.15669352526941443537 0.092775158356124085013 0.076753926077206380274 0.34806743813268670173 0.13262248108682508918 0.10072605765994406546 -0.41706376124197996891 0.24987026704557518952 -0.30648920561471004742 -0.22668083633727895143 0.39907582975731659136 -0.088969922191065739514 -0.20390363442345085798 0.31510411772089835791 0.2644748881728696821;0.0016701679613754438422 0.30318075312507569707 0.30698891184801835319 0.25211934141928449282 -0.33771489451381442315 0.04530143400734363418 0.2237632726113276127 -0.17495940082389896397 0.19343601612105826293 -0.29295986913897731352 0.34771682411683269009 0.38123319506041863924 -0.097342719599595117774 0.29709901062509380676 0.19709229435053549073 -0.1362285350129388839 0.33932973075885886072 0.51669365621167673286 -0.023937092744964676844 -0.037541583561027852545 0.09439017294501143851 -0.16280379281581314199 0.21633308049680016749 0.15898142658416986039 -0.02271253699982416982 -0.45616244167221048356 0.0067065545421003246868 0.23031370553686891789 -0.25458327785473400251 -0.41898514172782863607 0.34501093908807950461 0.25675300034892539758;0.12110024816521189339 0.32037192350356863413 -0.17116153029927291818 0.22533999298834905822 0.31052467766993402387 0.42684346001111844737 0.43294247499795623924 -0.33285103939836335751 0.16715745846545945752 0.46254857738476301554 0.085586708889303100833 -0.21468267839965518573 -0.27751448367912329163 0.038692192632422128806 0.038003355559612712888 -0.20320696158360035399 0.54867204562606353146 -0.0032220919149020346185 -0.24911417207625319303 0.27926752888701189548 -0.10863529016425026164 -0.27530043220390726377 0.24434743547854204104 -0.26945704581475010686 -0.27396527486540034335 -0.18939206026366334212 -0.047517630939058544404 0.20409428323020753493 0.11183061476520168853 -0.40923322718599663972 0.13951205612844838622 0.4675365200816397615;-0.46425174061841961715 -0.25561395683665294465 -0.48391297923300796713 0.054930830437120936605 0.24289919014464661506 -0.25603585502780096261 -0.017957559055414431398 -0.039422672442326778253 0.036627624186543500384 -0.29981379308426775454 0.13294889914271992848 0.18357280144070720063 -0.0057743304249104994083 -0.19930697443122027956 -0.14018490954113638214 -0.19182576251321536986 0.013793352544969463697 -0.057568780808074558608 0.10058502057003924912 0.2676735661273528244 0.43425620955620630737 0.30376705485171412446 0.35908912920021024417 0.024916325408609607539 0.53763622445188641308 0.21844875171423785987 -0.18159191397983562299 -0.095301107861008857447 0.34600201151000070654 -0.023683187380942261752 0.25819868082787339469 -0.094493577454058480525;0.2205947601329176222 0.20374606823097016206 -0.27225341826440146997 -0.47065891863468373169 -0.091820171831578561994 -0.046635308111468723458 0.03170790822351978594 -0.38181317682786691803 -0.082563915883975977361 -0.082721550900536636175 -0.11557167280000489595 -0.27261783656855881341 0.28412706506480989166 -0.4106968101145392902 -0.035722055297084033543 0.097186017667500707029 -0.17138984138909191257 0.10221885461086492597 0.43586135221945759843 0.31073846504747659747 -0.55427997098276282628 0.38937045226462208003 -0.15447587810244753359 -0.24023523440200139634 -0.034243406242947707629 0.36514186925961050756 0.46211707487373504533 -0.371523745711211828 0.1351542226941894187 -0.064791596259702211036 -0.20217816358501480845 0.18116372965681443175;0.33522627558521406188 0.42068466983921437574 0.010325126808488079011 -0.14952948659240253293 -0.40417768176723140039 -0.052976153455928078062 -0.16772637673782436751 0.051180473742818477501 0.2041851282238598686 -0.040640269119467012371 -0.10457909794928209324 0.22489520729377182606 -0.12103186898311175945 0.21375843128164959128 0.0012469631027673100908 -0.27921721498362456204 0.30169499468614718873 0.43802326014137360488 -0.055577621620622595644 0.18301321813614154776 -0.053937898253685966077 0.080869576939532186732 0.27163392847287703979 -0.20344738512134497022 -0.18205607013621463719 0.094141562048093277437 0.24236022907824383843 0.38847401897716449248 -0.39535913160401114919 -0.023110291133381956341 0.48657357189172600886 -0.27960968678935704812;0.27094729935135658527 -0.29574464116858018015 0.22672104063230377746 -0.25629420077761788654 0.21775899230842768461 0.1323613161341549993 -0.17538833272136652996 0.30429435201532628597 0.067493531530372727345 0.3904186773484249473 0.073053351783467543323 -0.30572646974738637571 0.14795002116160960171 -0.1415977133156016976 -0.19359432589706240813 0.35176653276324726383 0.13244139064398077754 -0.0054398321266119807962 0.29822402036488410149 0.17117995220146164925 -0.027334904485003218289 0.042396028784767635089 -0.4394958254285444843 0.33705869522286940887 -0.28005069746434058109 -0.22945531581786829389 0.17960734813664511189 0.25333042442509701164 0.18261745784523092384 0.10421139825078515329 0.38359884146149753059 0.12921337122823187138;0.34447257015993709706 0.34020468369720946455 -0.2246008111722056777 -0.19868480498032750625 -0.2136923772485157802 0.50762795068964361445 -0.47730115480090223867 -0.030321843923745202959 -0.14609647694790056649 -0.20571584890798824685 -0.015840328346423536432 -0.092583439317169363703 0.39982300717371183074 0.42487050839758933041 0.39353437659994433551 -0.078584752991741918526 -0.22826091177773918939 -0.28652027941832769464 -0.19430188396550418517 -0.46304914142533765142 0.057030147780998324825 -0.11658429323526493804 -0.27143506751685336775 -0.30948925365988788627 0.0040562461241600462902 0.11971553497059037041 -0.096238998366283148855 -0.29956312930044542986 -0.3201787907709209291 -0.20310507400204014239 -0.242710474478095517 0.38307829155880190886;0.12103923269179396593 -0.18195650679849342812 0.1672102363934806768 0.15109752051916403026 0.078604841188143689812 -0.085215757751616660887 -0.068525699357167665915 0.0079054998144393508891 0.58178103509968603912 0.36362464100962682556 0.024133818051307216745 -0.096240157045027960314 -0.23338673866932860279 0.022461211413624226907 -0.41974061033694554101 0.13105688412351393368 0.34604910025256174766 0.036633383552280615603 0.43496688618453321906 -0.4813325956407593087 0.31704022696223443933 0.10289641207628766328 -0.032352855484122332308 0.31706743979611684559 0.31666947092358899152 0.34673302066597055937 0.39285810778317037384 -0.16009236854353967039 0.32069573513333354819 -0.43382641847506914212 0.19485642787385251684 -0.33016678720975844996;0.41476372118337673234 -0.27124465225184452022 0.11113711969099157595 0.31412699209226957464 0.15951597480847501398 -0.33474385128355638175 -0.1148899579585737768 0.22666590152292093174 -0.17734514304456044931 -0.37361346368351483482 -0.55739163938832592127 0.32734748628490584199 0.30792270104119384699 -0.009917321557018030434 0.035372184970610870414 -0.40022112214834920652 0.25218655198862455213 0.028241524414844950547 -0.019938404707468566218 -0.0042383004664669245154 0.34072879866960087414 0.067015844667734719708 5.4224637469399384823e-05 -0.050158799243988451411 0.43255908596236231078 -0.10791751215197455116 0.14078974079503644989 -0.24887613456578636106 0.34875283763535674941 0.052688560048453854379 -0.20863502568458508479 0.08098686257956003165;0.39173405015869422474 0.047926660872158403925 -0.082239138300873454446 -0.46994932544708517552 0.38068117166870757417 0.42734533253773243633 -0.17018801409279654679 0.19654770827570550162 -0.18635217057213557257 0.11662705743053543295 0.32276490918494810112 0.1126684204612382334 -0.081170974889976529876 -0.17547066342349182388 0.0017146413258069712841 -0.15240527609427489963 -0.075421948785858089481 0.46356083648195256508 0.33345309755264990192 0.25249769803566324278 0.44749194317104651342 0.17257877468835017276 -0.46737674192790207295 0.084847613148592820886 -0.051931004868980792932 0.12133099247388193231 -0.14035825549123862044 0.13257071418795335349 0.28099943272979538422 0.42019686992171523254 0.2094237349617722177 -0.073504584548421680879;-0.41011183615230806243 0.32498683017656382344 0.28620688445796577115 -0.40499173020781592536 -0.031452558446261921765 0.42691234334376698678 -0.039583815029795299534 -0.44009927718622110504 -0.1690918568979351555 -0.13565446500466518676 0.32583038352687232475 0.12959271156199525521 0.26449703598200358101 0.041907678138054828276 0.3972249047500262531 -0.2430382558278415539 0.26027944189107798945 0.15529925999193278097 -0.19563989005547136046 0.46347205257981238802 -0.32266319771039492226 0.1296384530366124499 -0.4813076935559751357 -0.26696911915226789747 -0.073215614756682617648 -0.0027366782430599898707 0.13654273367471309042 -0.42233078612972674293 0.18221670542217402455 0.075238898895471001405 -0.16362383345090594777 -0.12868633234058324266;0.12769434116727101935 0.053860411998622230445 -0.30515483773320134508 0.096902298906391126643 0.40039119569764536344 -0.32202871232295049442 -0.035137186601990610946 -0.21466884704243094362 0.033957466693093740773 0.162144575264330848 -0.30730639807733428626 -0.084978941041673694556 -0.10813783056898254586 -0.42691131172998908472 -0.26002463727782348935 -0.19186035994861799781 -0.13534455562989491928 0.18702426514403286406 0.26142002044455753262 0.21069026641541485634 -0.26334328677162416321 0.16929151578088849628 -0.13892897105900869903 -0.36147186344919240986 0.28765880652363962078 0.091683182389700121351 0.12344594633455782673 0.37262261352709674656 -0.28611872119595344044 0.29684697507521129456 0.24746418237159828468 -0.17604898324073503524;0.0153486766469634172 -0.18432557862353052269 -0.0031858855635572536601 0.36836550372505949547 0.083798011201287783689 -0.1873470233167262855 -0.29427329267189783479 0.41809624928043936931 -0.044035922805796157142 -0.0075727150780328534446 0.39054212360812945448 0.39305971556455404636 0.24755446443268261381 0.16961501693821171011 -0.23700165604188583313 -0.44133031165218095104 0.10340593597862217379 0.24696095267384277072 0.34457886561344130971 -0.144538845820244094 -0.28701641993704268829 -0.25826892286606989435 -0.10757051692393404529 -0.24193481357415927424 -0.33757190456749863738 -0.40135258585653049712 -0.18427720184183765673 0.41899408041410202141 0.26581960732019982441 -0.15902601322479326118 0.058751185171519358652 0.37722480634463562144;-0.29814164197121872935 -0.1086200876745375965 -0.15216677943069639722 -0.496973888754262072 0.22465492317854970916 0.13975827446064262305 0.32580688695160175961 0.047285625522771497498 0.50668265987536120765 0.14508063406236398896 0.29969537418586744693 -0.34009174809038322795 -0.15142125904682529614 -0.32534709838292286133 0.31955683456853722912 0.32597871055358995651 -0.42133870995754429956 0.22857071489607141968 -0.12084571024211328283 -0.066019809801323131593 0.16041017188887576883 -0.066812460549012547828 0.54220399694832466242 0.12588838974536120663 -0.3543781537867399245 0.23166407373762787358 0.091684410079143019434 0.11652655880291433454 0.25161373194832525879 -0.27546006765741137823 -0.17037657742185352561 -0.38343093395498967224;-0.50788801307401842955 0.079457832342725256969 -0.28626520781605585553 0.014954625324138945755 -0.0089937183173937392672 -0.011415488495766814431 -0.43198996612023071728 -0.08194121355224145975 0.16123827919307170964 -0.061255886670434293861 0.397031788346554948 -0.27895703891020601217 0.17326363641739259136 -0.30723925544490932049 0.39140772567985754327 -0.45003845170111639318 0.51112257688347273454 0.23313962224907061604 -0.40167637751279711145 0.3473523307096795798 0.23470163652230374707 -0.22828238322857266618 -0.18128935840313833983 -0.027842552075643126758 0.19441179162893557075 -0.22057320679593020452 -0.28079515354339756872 -0.052051137130676931875 0.20630799450674761064 0.25894450726962958687 0.16983456879321895405 0.1046858013762395484;0.35980242576796245269 0.32221920423739336403 0.036741087791945549468 -0.16260497738764295717 -0.40977683046671725675 0.20477897537728959043 0.097476911612774344573 0.38354540376076434738 0.12728702095721408649 -0.31322408380076816048 -0.34279172197955798396 0.10932545841553041599 0.14855766538653825126 0.16706152542574392861 -0.53137646757394163544 -0.39954889568390211663 0.025934191932260527991 0.29251007188589234209 0.057937503904707254865 0.12892997925960508754 -0.010362678036300469742 0.11061755660640243404 -0.13191380930973342633 0.55858006693375561458 0.27569488365692990106 -0.3390530476695041151 0.066873727857797618523 0.20416130384701292044 0.33662451335608661873 -0.13091265128031617793 0.17181608872002290811 -0.10238961626743828259;-0.45063627541960155076 0.098943364345841541829 0.34556971442351613888 0.36073164803414681234 -0.18718291691393951215 -0.4848235431019791708 0.43522704179798538116 0.29057404433789768561 -0.02914895655747695366 -0.2322195713612147383 0.0039311570051400561432 -0.058247677417711002379 -0.063766702654749901624 0.0035589505094626040088 0.38529708506779503097 0.3065005855334233531 0.42468485164778474461 -0.18821116104194168805 0.28124093407603584227 0.095891722718566912986 -0.074709662349555464034 0.05373044582431538152 0.25664684197745135652 -0.37126816809058504898 0.3217347106937872292 -0.13760440036426976884 -0.29070983172006958917 -0.36227328154152260709 0.19758425535945473017 -0.1358380740951090071 -0.2870115611147897039 -0.22444685137615627557;0.23748325249086094102 -0.20124345814120248033 0.27683298907767789343 0.16792545053135810029 -0.080982105385578248558 0.31706861463126878586 -0.18334490821596427512 0.43954782827082911068 0.38066314952447405373 -0.10492668228046846124 0.17367626578547779026 0.21832400866640916393 0.12825767440512630957 -0.066959739265550585752 0.26408230971347201876 -0.052638289780522318217 0.055284234160842778139 0.37358313346169580438 -0.073699249784540524222 -0.011079612781174143568 0.076668215937357384049 0.28510346939322611659 -0.0069812470994367742394 -0.18695053900811831049 0.34538678516211313019 -0.19559470557435490456 -0.024149562946287315285 -0.32289342368873596989 -0.21540804757657966428 -0.16642764947834273737 0.5269316938050264687 0.3815543159023312425];

% Layer 4
b4 = 0.21114271944912552104;
LW4_3 = [-0.27569089485136777373 -0.55296071405778746133 0.34664531547701055159 -0.82628530283584533667 -0.65140174164336950291 -0.099758200106440819699 -0.3448317303931315303 -0.52190903362273699528 0.2052592353526572766 -0.13330322769535035698 -0.36903224667900191847 -0.11659404660061940817 0.027309205755268135818 0.3633330224088625604 -0.38797359910026679719 -0.092307734435828819874 0.039353749216834814362 -0.68517994640355572855 0.16997000496904973721 -0.24709813841495945064];

% Output 1
y1_step1.ymin = -1;
y1_step1.gain = 0.0513116122778218;
y1_step1.xoffset = -18.206239737686;

% ===== SIMULATION ========

% Format Input Arguments
isCellX = iscell(X);
if ~isCellX
  X = {X};
end

% Dimensions
TS = size(X,2); % timesteps
if ~isempty(X)
  Q = size(X{1},2); % samples/series
else
  Q = 0;
end

% Allocate Outputs
Y = cell(1,TS);

% Time loop
for ts=1:TS

    % Input 1
    Xp1 = mapminmax_apply(X{1,ts},x1_step1);
    
    % Layer 1
    a1 = tansig_apply(repmat(b1,1,Q) + IW1_1*Xp1);
    
    % Layer 2
    a2 = tansig_apply(repmat(b2,1,Q) + LW2_1*a1);
    
    % Layer 3
    a3 = tansig_apply(repmat(b3,1,Q) + LW3_2*a2);
    
    % Layer 4
    a4 = repmat(b4,1,Q) + LW4_3*a3;
    
    % Output 1
    Y{1,ts} = mapminmax_reverse(a4,y1_step1);
end

% Final Delay States
Xf = cell(1,0);
Af = cell(4,0);

% Format Output Arguments
if ~isCellX
  Y = cell2mat(Y);
end
end

% ===== MODULE FUNCTIONS ========

% Map Minimum and Maximum Input Processing Function
function y = mapminmax_apply(x,settings)
  y = bsxfun(@minus,x,settings.xoffset);
  y = bsxfun(@times,y,settings.gain);
  y = bsxfun(@plus,y,settings.ymin);
end

% Sigmoid Symmetric Transfer Function
function a = tansig_apply(n,~)
  a = 2 ./ (1 + exp(-2*n)) - 1;
end

% Map Minimum and Maximum Output Reverse-Processing Function
function x = mapminmax_reverse(y,settings)
  x = bsxfun(@minus,y,settings.ymin);
  x = bsxfun(@rdivide,x,settings.gain);
  x = bsxfun(@plus,x,settings.xoffset);
end
