function [Y,Xf,Af] = fc_net(X,~,~)
%FC_NET neural network simulation function.
%
% Auto-generated by MATLAB, 30-Nov-2018 23:11:27.
% 
% [Y] = fc_net(X,~,~) takes these arguments:
% 
%   X = 1xTS cell, 1 inputs over TS timesteps
%   Each X{1,ts} = 4xQ matrix, input #1 at timestep ts.
% 
% and returns:
%   Y = 1xTS cell of 1 outputs over TS timesteps.
%   Each Y{1,ts} = 1xQ matrix, output #1 at timestep ts.
% 
% where Q is number of samples (or series) and TS is the number of timesteps.

%#ok<*RPMT0>

% ===== NEURAL NETWORK CONSTANTS =====

% Input 1
x1_step1.xoffset = [-11.133591184806;-0.635213280519003;-6.05313909245207;-1.26114082065721];
x1_step1.gain = [0.0906257619025749;1.60160866695544;0.164073044495182;0.790826450980452];
x1_step1.ymin = -1;

% Layer 1
b1 = [-3.9835376659398269439;3.8774105620045680176;3.549042534966875273;3.6010963424516369003;-3.5496269988163962061;-3.3205632979045738296;-3.2228287729426434716;3.0183618927043478486;-2.8730748038935787214;2.9668724786859499432;-2.6341509580219315545;-2.5447141757644824445;-2.479439493577399567;-2.2786915875479243354;2.1655202995335023353;-2.0116684398790436461;1.9523891860557807121;1.8682265292674486989;1.7050924375860287974;1.5494112765464871373;1.4193263142741099347;-1.3191194507019614601;1.214689500434972258;-1.004447995461568155;0.95894580601227719097;0.70815533856157009129;0.83447254003069626371;-0.56186930458292205781;-0.30645702753767345428;-0.22146853697789473103;-0.1401332827922333879;-0.074363334911182549236;0.0031545401065147665731;0.018917937047959538371;-0.17670500401959382542;-0.54487618218332134479;0.57890458678190481745;-0.39060716225955605108;-0.68765647426021869748;1.014749248822631511;-0.89484305059167257301;-1.2150463110571938508;-1.4278456376562052021;-1.3929005556823526035;1.4484210107647885746;1.5684527610247529505;-1.8277007539271821202;-1.8272686782136744466;1.7361398091227910889;2.4351167928916463978;2.3291872535147488676;2.458533701749045175;2.5661636180383546879;2.734820341725266335;-2.8987045924138530317;2.893961794459162018;3.1190215460976316031;3.1410712886707985447;3.2352419621303893926;-3.4602576440517629486;3.6006139069672293829;3.8091785874928349998;-3.8551159612795582454;3.9691175949100263587];
IW1_1 = [0.65430011085830330764 2.4435396666863473669 2.1903270495608744284 1.9922283336600203896;-2.1521800022097989924 1.0903784403704772643 -0.20626046931179792265 3.0635048846752899188;-2.9480609478871220297 1.4851435365948126854 1.9264003533322988648 1.0381921883228473202;-1.5278031015688273708 -1.5586942994443990784 -2.9345697185684720409 1.4621276842397372686;1.6107181879436696104 -1.5432718165756782458 -2.441183524378588654 2.0494463051532378906;3.3589040440590527403 1.2418510287903867795 -1.3709656475516662777 0.737314229992779957;2.8756240178654546291 2.4366687382514502502 -0.080550837916997075627 -0.96688813102354742579;-2.4525041403955216701 1.4983379603431505878 -1.365343142975434132 2.4010588195984525761;2.3115506092009567851 -1.4453448173566201262 0.57172098615342337169 -2.8281394474952419316;-2.8294469717376018458 -1.6137382194953235892 1.2854125324526644025 -1.5061681442435377321;0.94949842297425357529 1.8128006037951545082 2.3339675544689790776 2.3440026746364677201;2.0130851954447166463 1.4372260275889043868 2.5510422328864228447 1.7595100029782784201;2.2857256171276425505 2.4049510690314055417 -0.37533801390824794719 -1.9909534248354419095;0.48815605595518046789 3.2067794216036489274 -0.84934509388408307995 1.9769836826001552232;-2.695926486581108783 -2.4503804761445389104 -0.58519198961854979046 1.3343614642947061455;1.751538162356478967 1.2746641500027904303 -1.2160999821787301656 2.9984214451539283885;-3.5879463274884355606 1.2905333001014271943 -0.62597794657553640363 0.063716103201175267046;-1.421268610002417887 -2.5506996062123885594 2.6534191787313137212 -0.11122620069058365699;-3.3130754419414971679 -2.0345217840608680326 -0.27658184433621502141 0.57950416079417255144;-0.7504238860079307516 -1.2739650159497919457 -0.015747906007983623194 3.6680247436601063349;-2.6537526208194450739 -0.96313934092424713374 -2.6086735347863894141 -0.81938954534917562977;2.4488451367836221451 -0.57324401561148352613 -2.1810217644924070335 -1.82325212265089176;-1.6836138417043675641 -2.4835707374966715655 2.3781564857766448462 0.49841313093368988518;3.1436824121582014335 0.46945205016821917043 -1.0231261227660053414 2.0685095868209715242;-2.4337733254288469453 0.92532157450654783926 -1.9226305190718371296 -2.0874025123095742984;-2.1377966686386180584 -2.8396148422761937624 -1.0336443157369468171 -0.9906305880519944429;-2.452511321903433128 -0.94596207854655500746 -1.7115886617126379043 -2.2660800898270139214;1.604628959463781035 3.0003438301555447332 -1.618665087670264624 -0.98969411783938332494;1.6876194857427186946 3.2566785719834179247 1.1330761507700284341 -0.37668529002240752623;1.5701186518869780784 -2.0344974379475218029 1.6378764695279222074 -1.6764610532656094577;2.0054403351684171319 1.708646644062025155 2.033245813789363865 -1.9949045601790260651;1.9774742808959411278 -1.6870011436555674145 -3.0008823440155971696 -0.42376205733274857623;2.8633190927763241262 -0.46793844569636944275 2.3447243563968815927 -1.2394007690723853887;1.871776038917610796 -2.1857932767073608993 -1.7806921474977066566 -1.8968501905067773894;-1.2950679584170441405 -1.9235048866358770425 3.1404382446740575219 0.0061784690269479306673;-2.3750841967236460128 1.3048319326708173183 -0.87133579693927731835 -2.4397581491705198076;1.4291953392736835848 -2.4831558326483849086 -1.6092735725989701923 1.9878813757471327506;-0.17135148335711117284 -0.73054884188109636689 2.9990109806712110796 -2.2367371167709846347;-1.2190922629050471304 0.92644904917773795994 3.4111520628626119667 -0.88488727382622744955;2.1098748049721476328 -1.7594242804134887503 2.4787496356075306991 1.4096559693200960695;-3.3115806967315557507 1.4007137339409538868 1.5766969774688306405 0.19622042004733775133;-1.0092625312960712414 0.69397812420367399611 3.1524963860388144354 -2.0074837049688687429;-2.391956085626088413 -0.25627911040565748424 2.4907615697484217776 1.710585967855036138;-2.5931694717831459407 -1.3531230561737632723 -0.79953710783070219836 2.5255609838899655273;1.487969576448226583 -0.58412275765589571908 -2.3787325734493798279 -2.5752538456569871173;2.2853938683193160131 1.4738172551903614416 1.5422243785835856311 -2.4951651007175326136;-0.8076801395076711465 -3.4679930761739297118 1.333201086422028725 -0.6143244673400810596;-2.0267354724143697986 0.78835761789773528552 -0.48860052111065993552 -3.2448806897973998531;1.9042421777584155329 -2.135327022707895761 2.123051583505556561 -1.8902118046839060383;1.2194507560306548921 -0.5218202134893207278 2.672571054738918761 -2.4403464402363503893;1.7846158501649005412 2.2704384502696091097 -2.2330721425757400489 -1.2738301427759537443;2.6006656399553249592 2.0016896304869846723 -1.3202915912416572919 -1.7106542212223128097;2.2479236257428101275 -2.2853643578495019817 -2.2292926859417141472 0.48800832027095136789;3.0561698147207598808 1.3424796609134996839 1.9810602836925648162 -0.67760741258625167838;-0.82344428267881997208 -3.2123585926279067948 -0.91329504063327771046 1.8500881614487774129;1.3082482049438455274 -0.11007220422163294105 0.65598470383573104225 3.6800165718236574897;2.1867197898335697381 2.5398438901820035163 -1.0459606335873392613 1.7495192721695604909;0.53486575725453655572 -2.4289903720592991299 2.3027582976621325805 -2.1179616171779183098;1.4374468370245991888 2.248570461848388824 0.80238555023045843306 2.7200205738501783692;-0.097335886769513546568 3.1526037755106393057 1.8543292432124902636 -1.5146237062486280767;0.077417133915008526368 -2.1575871554854906265 2.5409461000669302244 2.056207799990910523;1.7929048768761011168 2.7404844524256062321 -0.537621954897205101 1.9473118070452024586;-2.6856518406324259018 1.0717938921584619916 -2.499837726655306458 -0.98316980304463819085;2.0020036251587915999 1.9300882682789084477 1.8166645531586986806 2.2227316853147391917];

% Layer 2
b2 = [-1.474771916572497954;-1.3660354022169052257;1.2906591435341052687;-1.2109896578400973777;-1.118995548020979669;1.0067999380300116652;0.82955180911214321249;0.84421688036174191705;-0.70894482493901955777;-0.66517308478147940676;-0.52383697959532127264;-0.43382320111455013878;-0.29740480831597010392;0.17007304299441219908;-0.14522311863838949231;-0.057347458576674732733;0.036493923332588891484;0.13129522696636838908;0.28669539893827439281;0.30357640739700086918;0.38517088208634370217;-0.56398661826719054257;0.63852283668699227892;0.73516274266929948489;-0.77125233920460423143;-0.90141257379809025529;-0.98592847506507530486;-1.1097636275408111484;1.1836346673426527687;1.2461940536121991485;1.4002429568530532222;1.484835769266446226];
LW2_1 = [0.20183894220011994181 0.23627257824927333507 0.030988966744840015788 -0.057511632499879748737 0.13538699836097833895 -0.028640479140675183245 -0.28309602933461081031 -0.29916912854145627509 0.14447473258875595525 -0.11993898338993730368 0.070998542656841912013 0.12514916840608378279 -0.15925992586575477006 -0.25640962289599383839 0.19319066719999195003 -0.15556296069961783601 0.27055666796746802305 -0.18932628169196222268 0.19707632911187494829 0.0054473277046891621297 0.15543795945237171008 0.2395102296523066443 -0.14919071344985593286 -0.33088939750287815755 0.084516797153168232715 -0.12586198498368733611 -0.048948452988697647992 -0.24827562738473357706 0.18950513206153624113 -0.086227492898303573221 -0.08718847908540977576 0.204510273001098003 -0.16886298878702551973 -0.21167544987555841907 -0.047577165989048646189 -0.10834850895035574858 -0.17656609201186018732 0.017692956044081629974 -0.1332639681342921989 0.28476973585903170294 0.054259103103692848946 -0.25606724997408636391 -0.20477747599524137589 0.22836443474152720579 0.15236782077237739919 -0.063534083912687833173 0.046480187117137569675 -0.092816929910454815111 0.19035321256846032822 0.25642443891678035062 -0.23574264186829047008 -0.34115674073433399638 0.18575902240324884684 -0.015340656820876666377 0.22362132439073501011 0.051390103642569982811 -0.033540567779771220114 -0.26463067835193893051 0.11670248743823964654 -0.13118493724552546253 0.22854820286409607832 0.076039912470950474233 0.13702296699941823865 -0.23196950965474083528;0.065754068719832539647 -0.20628190234162932515 -0.26798867467245751639 -0.27491063551121802666 -0.099847993128597448131 -0.16911975499486900376 -0.28764984121751679957 0.20970373915178699975 0.27313069803919137746 -0.15269489907429006914 -0.16689287656187276609 0.17246897038518865797 0.13560134279675870039 0.1973927068279417163 -0.25376935239316422699 0.19159698990552054276 -0.18692483381907262774 -0.14578299303491229488 0.25834844339705642646 -0.25646275493232822962 -0.11598500207027576114 0.019313337763732507657 -0.068016735162298114226 0.29867021957803613352 0.0039560577381934566854 0.031695238820594731632 0.097065465103940498648 0.28646091077847068984 -0.20683029619433437873 0.32089214850788422284 0.15010291185645432965 0.022973154442071330034 -0.16744520323018208252 0.036044865976887052739 -0.011581107070604081816 0.28162678349741737671 -0.21751503109591516227 -0.19295064851163179487 -0.15364601951584047623 0.046952739804472315432 0.21257814234278779586 0.19048817181155244804 -0.073052406745479428474 -0.24148955296940943782 0.11842049313351413198 0.21475461670231152378 0.0011832262122570941752 -0.075851197866436112505 -0.29938592718043222085 0.16899741776208776489 -0.067584968841249939975 0.11794398249636700582 -0.19713477710179114211 0.014375497677375042443 0.11851095694636748501 0.082411484335410470359 -0.031788613823378254752 0.30715951578053241056 0.12050817033044834703 0.26452322736432898331 0.28200347264850095241 -0.17935005536687637084 0.1554010776746688749 0.0037358703305674571642;-0.14770040006124998677 -0.24491097478718884539 0.25708142438654807416 0.31922981018586055191 -0.12672264165103433453 -0.093144293071873468515 -0.3267572638606887625 -0.17559128602774917716 0.01358584433185399537 -0.1569544371416221884 -0.14947813821089997455 0.098769498143736006446 -0.1454330162238492985 -0.10944873004743529976 0.27416895107146932453 -0.21065996758876134876 0.17635271771453239764 -0.070452343486279919715 -0.21236190388863812606 0.15285121592278466673 0.11923278455092385653 0.2487059908661428953 0.29941080633835265301 0.062635850752339267133 0.23290633017039841235 0.16436483040434116121 -0.31827077633088152187 0.17226418330015269564 -0.062390496782759388705 -0.039766521104564050981 -0.28216056349904294898 0.096379446209937436052 -0.2356599319616194399 -0.037961336363815649519 -0.18338696177830351997 0.14105857841392815955 0.27593775547322840769 -0.090637528884300364029 -0.25068031393565243237 0.24943036914330576903 -0.25802078257431310115 -0.091700643708215928696 -0.12733464672172198351 -0.20701764915358156216 -0.053156314214285453612 0.23629661755019540359 -0.0048836438449390215388 -0.017520957220579339714 0.012593427395528008703 -0.19379503593271524275 0.15411862478135474053 0.32122164832855193417 0.17659109526315164285 -0.064462039300396054009 -0.12990060608339953907 0.070958779013987588469 -0.24231354977894448144 0.00087113814577992191353 0.24353258053635939984 -0.0010297464989688124518 0.24896163054395711867 -0.10440255154869974852 -0.01755219882898509387 0.24679950851539783629;0.097308442321136293107 0.058432405792364999764 -0.27315777739353197529 0.23456159358264705439 0.11430129544248411599 -0.072602739793491299913 -0.21019638852078656455 0.23516912500304706923 0.072222140731294418026 0.2024060946069692335 -0.19456821017954417652 -0.09120247661378050319 0.12328835857072176219 0.29283367397695164724 -0.10396623054011913667 0.080416762682808423657 -0.11165089227431204688 -0.12670909779449390786 -0.019826689901756441858 -0.25299644354368611143 -0.033284751931018020932 -0.1603466461350876171 0.052187641638322145032 -0.17120420713456060979 -0.0021289669079655095668 0.27803914916400751522 0.16472720199716101019 -0.30060143911254727511 0.050408840902015486507 0.3406159291765364916 0.077699525257971385761 0.24845982857100826213 -0.18337259389061810744 0.33945485942466119278 -0.12627558936062766026 0.087711263006430645328 0.36368081631021687006 0.045598937097895940462 -0.2355073647756848465 0.32454549731628923315 -0.13939478259760715306 0.029844387569721762821 -0.038881553834081337973 -0.017357487325310432674 0.19589507720758767007 0.27493885203465490141 0.16554061256910268529 0.28033388225984828823 -0.084672404754406072058 -0.29410686725247986439 -0.31658691684740714045 -0.0061259479513876792175 -0.075736201022370122637 0.25685730965797759495 0.048282897366541621675 0.25803396282257040628 0.044398338226017276809 -0.30630810298529853597 -0.090593828758435343551 0.074370485822948390053 -0.37485180001500839619 0.0027045726393070041761 0.24267796616131631637 -0.0079946869331863658348;0.26080446384862343567 0.15881174081260251985 -0.20318942908696391303 0.2284895043553449856 0.19098621738637838741 -0.27249217082371768317 0.14597055292787836089 0.21435347792252754107 0.1133255440968357064 -0.15977776812346444757 0.011386500645848701696 0.018939810015784524361 -0.19224520810385287151 0.035254119430290234427 -0.11771885377316479437 -0.091557314767086173113 -0.14540069127145929806 0.081119644881305713602 -0.083682648944864559959 0.066040943595680884348 0.26359988005052492621 -0.12431631746184458598 3.4652497275796908301e-05 0.32755528430140889995 -0.25057158655141659187 -0.20890368033443129647 0.25621713686846619984 -0.023310382553314371035 -0.019695001790731459651 -0.24948679183672481385 -0.22626751875169062722 0.33456449867580134727 -0.17874401031700637432 -0.3443549179189425713 -0.25653935601867455807 0.042826874433885699089 -0.187752739960176801 0.05249076367645522101 0.0097907758789424377543 0.094982895079938775562 -0.3344262387537238479 -0.030751591040477893602 0.25992960635242867706 -0.26640717130792324063 -0.064406346973882852569 -0.24691963898982416392 -0.13344319215001648748 -0.09351189133140849763 -0.31234563897708211844 -0.25055415913969147912 0.077346081895996968147 0.081647391604276212118 0.045527809192495563573 -0.083664887685264005546 0.13039361584206635158 0.028836233427108344529 0.03829334826420528054 -0.28751058535744372646 0.13635866765651658006 -0.24388812661920636349 -0.013473546284039262036 0.076762316418306955623 0.20905677491865712336 -0.11793960368524412929;-0.19458501236938918755 -0.29098813893619035476 0.068121808505459721661 -0.010918860475185036135 -0.22290952371302683033 -0.065426423665470023749 0.17332396805977065557 -0.14653709421579416694 0.2957435633921183249 -0.17686479763154791534 0.1750260282343371887 -0.37829322125898645623 0.078907883351427468566 -0.35800253178682983624 0.21710156470676503226 0.054114872333633087798 -0.2081445648159271633 -0.0057657523551833287853 -0.05284874262717336596 0.034815840526380668896 0.1382583467155285295 -0.28630961259410647735 -0.13790481137100368825 0.094380068034259856358 0.22749338988915904225 -0.17056005095766241242 0.019926177596497351291 -0.11270919964517356338 0.13670080173307802562 0.44657503981946133909 -0.066570228114848986611 -0.088632937648563947519 0.083625036109866199285 -0.012614762879644756191 0.012137854142748163988 0.11121316654418172964 -0.18275643109298636557 -0.37734507135128542155 0.20458279912603991035 -0.2012698339134250114 0.27122130890828682892 0.11923898845188153628 -0.17961811694952539709 -0.066332714363759079368 0.030866075434616033896 -0.19143758401938595903 0.071965849071592355446 0.0038744381860819862053 0.23558563114686917328 -0.098439721346429129301 -0.055478997441817799741 0.1829339039274796852 -0.085387890777253214192 -0.016941445228379186511 0.34128548622013044067 0.15377294683274994602 0.20160619839927113039 -0.13988741941993310114 0.13799319524081979371 -0.23138422549730899846 -0.077622518659257427887 -0.28472857007099405813 0.10417859542277077556 -0.058394169732505260551;-0.089821906347664265402 -0.20709898365915349605 -0.067341131316515770444 0.16970753091922397005 -0.08579992527539431757 -0.016665265951305061054 -0.18161145108592108288 -0.20801838992363155811 -0.19675722422707001003 0.051564031478516438034 -0.25823926820413245498 0.25593744920823596756 0.12252217520501872128 -0.23695367263429781279 -0.026833721723575641727 -0.050436155852982715586 -0.3705708710845503906 0.0011491205336782368048 -0.089483286752185225987 -0.13389837042912502985 0.045206061142550935106 0.11889095383394160388 -0.033229386867337853961 0.062785280308039398411 0.12547779553624116566 -0.23312691268934634947 0.11655428615923019153 0.21260157757560083081 0.16846922730829488879 0.31648742303526838926 -0.0058744440622352902051 0.083492066245553817061 -0.17973647302197476305 -0.087809051246405075974 -0.00064535288850804076611 -0.15039069407832877934 -0.16836172381919137231 0.2353333359939047964 0.20668452319303029507 0.22579577753220383962 -0.22393889842357880826 -0.22039316390108679156 0.037593643679138429026 0.26190993778014942661 0.060020356662944397697 -0.057231145230742443142 -0.056039068918514678419 -0.015469873629717138114 0.18815318460534072309 -0.30318197321633449937 -0.047311035570141747597 -0.28494294613741533162 0.016355070438361134916 -0.0041090558779916007762 -0.10008238021654930483 -0.21610242280282321303 -0.21494266742802348169 -0.3048051082187496208 -0.14351220277546150594 0.24056035129178998666 -0.26781104813147221799 -0.20427709319778619701 0.34845094344938565278 -0.050570247019810221634;-0.29752445211284561655 -0.26626854333496596805 0.18421647399296622871 0.22420901051684657967 -0.22721732228095462003 -0.13524505596920535777 0.25299871326002476568 -0.18211102808639406669 0.097472108496678824818 -0.27045499908043751924 -0.0090974425426239239473 -0.18045660500541435556 0.047175808761889634346 -0.28037002716135950298 0.0019473734714489611061 -0.20010529295593151855 -0.14848955416120807049 0.17813550197636379702 -0.098811476334274853106 -0.25986252157622985459 -0.020844848075410156441 -0.1691150366662819704 -0.072091211910046221201 -0.1340816578290989769 0.014387760696919027134 0.12485768130481926519 0.19078458389557251262 -0.1578668823754535433 0.31923914320333685035 -0.054790039748163502087 -0.10281058135884063587 -0.24987267352008957211 0.32314076985597334213 -0.23563999395802978643 -0.12353159629402160613 -0.16055856690665418207 -0.29279136686975892889 0.24910847315719325534 0.14205492690326182448 0.1294254873188739885 0.11132515196765693788 0.09748743408867771576 0.12854594432636884394 0.10743865302879536394 -0.110287074318424827 0.20804955898611618426 -0.22997399800918216783 0.34357466370507860898 0.20746035254437886208 -0.019233049618984029289 -0.15546793924371904438 -0.12820498872307389826 0.32957053626626020559 -0.29128298398706825578 -0.16261073864386951793 0.17932539456413518208 0.28031108138495025583 0.19129096680091861593 -0.12585717496222362244 -0.0086022922344544342638 -0.12350535326655034951 -0.12624372656111718105 0.0057591204119851521076 0.28235237201695551068;0.3186236301913249469 -0.21143075824856466527 -0.11083401181432141203 0.13985949640333203425 -0.13560635558164543801 0.2956492362079415348 -0.048297462046223454957 -0.069569360571297186868 -0.20972377987635820729 -0.24157075812936740222 0.04168025817674310407 0.28867495179275148853 -0.23483187301549152126 -0.0033505633342615333617 -0.14267544674260651538 -0.28254518479763135463 -0.0010463230039883951623 0.21209703715032540705 -0.21575032557960427404 -0.28524811301707825306 0.060577545544344253703 0.0707808343513410404 0.29896501944789971583 -0.019889963534298612385 -0.097840952053150284651 -0.1867566455942661352 -0.1808564028441231597 0.050013206766746844123 0.011247599022572427052 -0.21553393055762354313 -0.11090240331383845185 -0.33246994523220652074 -0.10082570706354486434 0.22888030421397381753 -0.076810000241786538511 -0.059612498637509510335 0.21300115744987432875 -0.1395807396644846432 0.094431697259790947641 0.070596381301964744592 0.082053471090028709534 0.25054046863503109943 0.2168525391841227834 0.089909483471284495915 0.14950539454567390862 -0.09601457074293440197 0.091084894120073645052 -0.030718364286988264489 -0.26315450434506376665 0.12902200205312069903 -0.24887056255613868028 0.25353345002753963078 0.17181137756682865469 0.046079178943519746858 -0.099293307791330248646 -0.11110485709169241886 0.013317812628428246993 0.25523777814942022468 0.15825908426241871996 0.31753463402365128543 -0.32584312499668394159 0.27661118543461338248 0.16791463523765615129 -0.12112678503948970388;0.15499610435682784071 -0.21088605409923802392 -0.303346813493004408 -0.05887190250851287443 0.25743290450055134055 0.00013245399342193262047 0.25064231798250191652 -0.17281064109610161372 -0.14715718494940893679 -0.12208195132800146732 0.23830401447936697124 -0.016312284958487938136 0.12391502009915718319 0.32672225051690145792 -0.3589510423975894593 0.26375741164475230427 -0.11617086015227125195 0.17854139286576048429 -0.34795016697379804738 0.22640045169241107548 -0.022358356825749090002 -0.19867485117658748028 0.0037365355450243243132 -0.15951276679252510138 0.0019983556193461995965 0.059479593899745490659 0.24759955531279440044 0.036736108293815239456 -0.046783168776774436415 0.1716846262308685811 0.11164192532178902895 -0.11521764264373614284 0.10214150332316686287 -0.11680085794283992517 -0.22663035245508492133 -0.25910941921993468906 0.24357122477779141745 -0.16588660675873226347 -0.07708416617638580437 -0.19389252820382668618 -0.082839590122217976464 -0.2436654541174934907 0.3098003257411457434 0.055515877101228516821 0.17922522736595183912 -0.24734367378107580127 -0.29077334904532015081 -0.076777290156140057253 -0.14753740758734146254 -0.28572871895435425493 0.017003452897143951639 0.15654157037767163496 0.20665213416170211125 -0.091475449885817516904 -0.084455734449771641126 -0.24266216930500486559 -0.2705567443578507647 0.19762974128615429237 -0.30185060196199459126 0.067101371273414131546 -0.19351719082757859458 0.035347880793934548238 0.27428192258738848253 0.094496096332794599082;0.18220399217268756775 0.24819905693927982182 0.2268019091934609377 -0.26699128955486040038 -0.027045300936427558308 -0.24933720074141274559 -0.07935066607808961836 0.25115968378059644328 0.12674928437254112668 -0.13558547458078348824 0.057791814264115039246 -0.2074592000313207063 -0.02384074391420902897 -0.11438461941798383492 0.057027158309734947428 -0.044079064250370024458 0.11150297206022885543 -0.35520194637467711329 0.016788647616004962609 -0.34209736764042997237 0.13674251803978915154 0.087287025796727160665 -0.076234568458555099224 -0.037109262835809307679 0.23741182237321992177 0.071884325117847466813 -0.19144796975057279398 0.0030246990311388831894 0.25131819587150733275 -0.36979281856878470913 -0.3796134111267774891 0.079597113786271447844 -0.14150574493079268179 -0.040933861711707028586 -0.16645000521555816664 0.0064445220112718673913 0.19903382508343511748 0.048288374549970300431 -0.071256154801269747101 0.02149294047921053441 0.23835262965858994288 0.29883002536311192854 -0.31423960443671045129 -0.065404509065605506701 -0.094187663039557709133 0.22525623673266473301 -0.120372149573861012 0.0050903667228190561597 0.20446513088887829923 0.20839777317635077569 0.026018149069702348891 0.30798160654951317605 -0.071504267981720964764 0.26603101129162676219 0.21600761003460489107 -0.02011354206186988583 -0.012907585702175873935 0.090861764758247698381 0.26749397239882327648 -0.051454087606055520787 0.26890731742866891274 -0.20556044447609017611 0.27608238353295999623 -0.27342636808938636239;0.13755529764558505068 -0.087077217875152171378 -0.15023051670597639684 -0.12339847712447353512 0.0048474480198879843496 -0.086126384622039489636 -0.063760256482028807024 -0.20268884129687841922 0.089604923726576510279 0.056117135719635842517 -0.26934169465355534134 -0.11030303769430135907 -0.18830141910800377025 0.16620842235324659319 -0.16860603778618746262 -0.14684338785664366456 -0.054155985828935673809 0.077556543618394896411 -0.23015694360684635367 0.031090387021781115684 0.098440322568820265436 0.11466259688767448111 0.095008441111724448169 0.21123436996787298137 0.1698950493146045293 0.14463477898441925995 0.1322292138535617334 0.055955370793632962234 -0.12789341622880995297 0.51273048686521760509 0.031990346618157750047 0.19428358778602944357 0.053487811440483243319 -0.19411813478630979279 -0.04734464514197690016 0.082629469383771969593 0.060480974028660927644 0.049952928805144895807 -0.18173070310523875559 0.014578607392729474312 0.17979917519056431985 -0.089887958023518330086 0.14132853262262515259 0.051837933517983984799 0.096037644710609604282 -0.11116611431587022918 -0.24158853156462523071 0.22357120631115526277 0.28253407338826486139 0.044689472393734282207 0.042995618286570606859 -0.018689951355944048328 -0.0736241254401189954 -0.24254545842352145946 0.14386295231647408532 -0.17746201791637997158 0.23408873210456598857 0.21184879281371679638 0.097547747540139284617 0.23894700851001393627 0.16698119665411231827 0.17317101098074275112 -0.20786137150300335041 0.17317627131883844838;0.03672499504384323793 -0.23083833199110087575 0.043685102633941472194 -0.16485509029620462607 0.064626920748329083621 0.0010255747638935272265 -0.03667057301366169475 0.27410034735991933852 -0.39894219329349245307 0.094698664026831122498 -0.11475887463527982557 0.18653345405262483636 -0.0063388761906627835371 0.094942364592335876106 0.097837697437474308026 0.082781477325271510259 0.12070396268988450861 -0.063173661849507248278 -0.17543382068124269146 -0.037981105767797833372 -0.085039989868157681019 0.19128633906260325559 -0.051744433329573832903 -0.086067836714860887493 0.14063313454664286284 0.12857643451667774559 -0.048852362032098778366 -0.06151640952434442311 0.14775268549404782514 -0.69907849247549891381 -0.087283113999133049576 -0.019335144735743613892 -0.089044261903633667443 -0.066476206689367670077 0.043900583238778108364 0.04747244398885650668 0.013670184923932892154 -0.18002647059403700802 0.06248306801390103582 0.15900062546944226938 -0.013358253743776813197 -0.093916229199872233724 -0.12543871286965471712 0.00079409645619281767417 -0.11138503021127930948 0.092031545743958664829 -0.19595787797949937303 0.035523043593944703122 -0.25777490906728212083 0.056330865467916609035 -0.014441130049795670998 0.11407337358435838681 -0.03808844446244085552 0.042049484900997947945 -0.31438350858739189109 -0.094389853517220262402 0.18670203141148933312 -0.31734815591735932028 -0.19499058017043843782 0.094967401945301913035 -0.22513991468660424222 -0.38444399965092562743 -0.0079422592717428974057 -0.27771802188771882447;-0.15076057926376532081 0.062722640842791332894 -0.18738100862742163022 0.16846298046234897683 0.28680574423265137174 0.057356949844758649271 0.028536491606547535055 -0.26620235182959023357 0.32162482707492617839 0.18545377659889844546 0.21522576786800701187 0.21496708734774785943 0.24132532388854971428 -0.1372695946863888572 0.097204688186893539736 0.13617105852166686009 0.075305693223791062008 -0.1399177601499729251 0.075692821119708653121 -0.03479396490108722928 -0.04771933992303935973 -0.041324095148289323454 -0.27217360628491982233 0.14169489450670735842 -0.24133175205478699099 -0.11079844875005927241 0.13919959304614396012 -0.0025557036605963999454 -0.12459500319113994693 0.15273008275476548934 -0.031950124559292671089 -0.3221945313346712414 -0.18701213755379680892 -0.038090036192217048561 0.044617771050781400433 0.084746807758885586703 0.14156041476387720701 0.3231333217979343031 0.14664673682546292 0.049273021180422753307 -0.21126006122366988715 0.091741222313638473573 0.16286854393739180757 0.03944296446873636619 0.22255027382341405207 0.13232011683739125507 -0.059800268251808307018 -0.21518712736194647861 -0.31141616782914544048 -0.29670562304266384634 -0.10742934970765621872 0.13953689426763585257 0.27341832380688479986 -0.0022265435610420636001 0.13005031233932440315 -0.29053365019086740961 -0.37613788245832618928 -0.037117227008000672206 0.17040251729626570976 0.33040847810793622097 0.31201897327475675015 -0.44380103836841910958 0.23943755146054276906 -0.15112276176112182657;0.22634007763857011408 0.19370107313689335915 0.029585177197652141878 0.058872379328529352016 -0.13948234572171738788 0.10271096884468129684 -0.088701793111601368036 -0.090733701827521731631 0.24821010003614543682 -0.21047547410721023642 0.35409940923125565737 -0.18136036591014806363 0.21027315891639986045 -0.31491739369061150233 -0.26442658797131746162 -0.16322364625788957082 -0.049835825973882925954 -0.16772239599064192594 0.13250056800026868697 0.013688977268827482586 0.067568413848197866889 0.10893221921087009596 -0.049533891789173854769 0.11930986731192036454 0.24152596330851838768 -0.07568240667188948223 0.070273608923143354721 0.16277491118787490443 0.29062279151203368466 0.21409704209533822472 -0.13323063179283881063 0.12023161968725087911 -0.26314060762735924648 0.10541057164355384368 0.17319332833857950527 0.061610971314007535737 0.03547461421508674162 0.14280946030843741368 0.22085096080222615944 -0.077042723341465182973 -0.13974132944563447123 -0.12503473184199459523 0.027264713938921266573 -0.21298797353827908507 -0.17932923929617089476 -0.0080530994107925642223 0.16430334621262618344 -0.075247918636055899366 -0.0035705566271491562952 -0.17681686247604910811 0.16534678713605263645 0.1701946712271789619 -0.012183887513901901084 -0.21671675237802384695 -0.044141462302862095879 0.3226968108655209333 0.25999398784211774638 -0.25093566171205816673 -0.057400036174025344249 0.15719714847189159013 0.25399755592334893883 -0.0011697431137962616913 -0.19047374354735699398 0.059395293777431669435;0.087026926548872299283 -0.23650272195617708104 0.021204991150720518822 0.098573868872916095563 -0.16490270613853255655 0.024021251939683494619 -0.14689488799816127762 -0.13079119639599104397 0.21180823937040349492 -0.085408333451998996733 0.18292649028609625494 -0.13228889568261015253 -0.15715286624196067589 -0.061251794874485537834 -0.3024976584600923557 -0.28180614932193698285 0.10497506656278784987 -0.066104331463149923476 0.1592743324392886517 0.2281533515946477797 -0.20454268632397384908 0.083746121632331665952 0.16678035561878432058 0.1575560628262804852 0.06930519589800754332 -0.085937536142350931523 -0.092643275115837364631 -0.025905761412851151942 -0.021004984193174786045 0.28743530063377203954 0.09692905095275708427 -0.12888012452045646827 0.14342432244422137488 -0.13375651861158491251 0.077650246614994700156 0.099783621397163846378 0.31232991292285461338 -0.14821845258871602091 -0.061360366238439240094 -0.19126628504677894993 0.10268317378664815198 0.28266758988807472175 -0.17986368961298221381 0.30265019673664084188 0.22371119949661086301 0.26014443793109603975 0.20654032500105207193 0.29732179067696062891 0.29058808987159545634 -0.23199215129991912487 0.034026834546597641007 -0.015577228638286484685 -0.079650789549980643978 0.17897921871815736239 0.089876438308572614844 0.077083349403040957171 0.16772493570680885311 0.21115771307322875328 0.21719828435315488568 -0.25823806276905375556 -0.2137894865063143246 -0.079558681110025508687 -0.058122440930228579103 -0.15569603537335752197;0.043522604537113658563 -0.25269312339622995722 -0.013584243171257986277 -0.26352298136891949554 0.086315397832408449763 -0.07675962789843945866 -0.1824578344171066957 0.028206527722074055398 -0.02773075380372810525 0.044933582757124251872 -0.20564130804835040189 0.32023195847238250522 0.10382381256689614257 -0.037607492991736199417 -0.28997956893483312069 0.10392880474127236257 0.16111487824358519672 -0.023625137736860455512 -0.0093936271780816083671 0.064897230065283306732 0.11803882995417019908 0.34444433405653296365 0.24036829896330205725 -0.035901918814492707333 0.00038451293562577221891 0.19320501645984547445 0.12049809475668407655 -0.28043836239659436504 0.054121635288940039832 0.47818634454299546732 -0.15097358287370496455 -0.066260654037621852241 0.20336429780548359592 -0.13666163034221559536 -0.28710943461706217583 -0.019426188799416210795 0.12110251344838468546 0.18099068566670734048 0.06427193798519201251 0.079684049324685896076 0.11193058795117022397 -0.12976089719742556206 0.10413695525329295932 -0.23854549481663692156 0.25835586004788507752 -0.0065350585453342732375 0.2121103517479409617 -0.32774910425405373582 0.10419721829936300084 -0.075961311527689617806 0.090989787514366662902 -0.014888308373594836762 0.047661958880077820444 0.24279529395919299817 0.342483918322958103 -0.061063433855709212117 -0.035944359776406253904 -0.075409934140484011222 0.24529786667949632362 -0.13028473742432616911 -0.052415886899231427243 -0.065642536224265371492 -0.10125808072580991248 -0.049331660366651562677;0.084746405653754547371 -0.093825324580267877028 -0.060452608051331215011 0.27717541107282717139 0.23764129307613679476 0.24253655603797205642 0.1951883789323411722 -0.038949385398936810232 0.022305193710995183803 -0.28321003328228355755 0.17496928226691416119 0.14388391843635359169 0.12686709503780446706 0.15493222512967003146 0.1410713027895588445 0.13722374501665191016 -0.0020251161583106865906 -0.054684457537756095413 -0.12137704557393166893 -0.23958476528036024011 -0.14827677156177135331 -0.13476978829783642366 -0.20297519833720445437 0.031979040085059431964 -0.30752461244751044811 -0.2251186206009393731 -0.18279854347057572506 -0.093537327952832399758 0.18003366486822866555 -0.067424017263498975394 -0.10941874584021277217 -0.23841063002919737901 0.2517400996153936199 0.027315297312200528118 -0.065277048713878182973 0.26892357963382290675 0.23679899530766240767 -0.29411045841944194468 -0.033747582421564878419 -0.18752414787601895396 0.27795184184245119718 0.23316177054034448179 -0.23195810994973994901 0.12213118105294439031 0.019065049807681706817 -0.18776417741262338423 -0.074899763342140490696 -0.09509430838818885845 0.28914635366515811787 0.16103674329381589825 -0.1506831919339147452 0.26048706872232429976 0.13361018954520748059 0.17419166233787561349 0.30646797718937174304 -0.15368421429002751544 0.0046712214987987199163 0.1985189935206901346 -0.11166611961166900135 -0.1703156009126460535 0.15769428095884766017 -0.11773177030937180543 -0.038855886911157259955 0.28995081451980320164;0.19229790912477059961 -0.047025971982658246184 0.22509512625062849667 0.041783720452760596265 -0.27928714280020522365 -0.37348906486274935368 -0.086271755317067294611 -0.20276897987656797295 -0.32281480875619172899 0.033054564070641105633 0.0624159403866282117 0.074639375804192165109 0.031494477190258989008 -0.07433757720130186597 0.092270936195181715855 0.058733047843540150956 0.43783993873500814953 -0.11391733617937983836 0.025057721267698573192 0.29869098152613138275 0.065440493968811075387 -0.1434033406655427223 -0.21148684436073952875 0.18427399262103247302 0.22273404511329378264 0.25195931081642519711 0.2671989588825894324 0.28345113816486655622 0.20510522786235435566 -0.057288558204857821521 0.1698449147732798703 -0.23724086502742988691 -0.040507494118611139799 0.10095962909706682198 -0.31181382985924843698 -0.074831774364095660079 0.25873193222989476769 0.081634113376196221212 -0.25336156238799201201 -0.0068604938744648213608 0.22012281138883060816 -0.24848742739687246228 0.27186175457226152696 0.12145426930547960354 -0.34113963671770680675 -0.17999209535937832349 0.010467825297295597908 -0.17505112793771965274 -0.21771070559228447583 0.28024542303188687553 -0.081926065319399124509 0.12711089569710024016 -0.02870227424121428797 0.22865452256852689117 -0.033200232212604305349 0.25312897585294424907 -0.048508466459217483568 0.15839034193880796586 -0.0081599477842748523865 -0.073313577503314256156 -0.30609712512139441998 0.01751357908922880624 -0.019789527773207180039 -0.092736880069887520084;0.20725710808391342721 -0.062101582191812575162 -0.0095778126344198116077 0.037211682839359598585 0.2172229033259184261 -0.102115769187669167 -0.053156832237353422721 -0.11521512551994736451 0.17888898974837058597 -0.0027109037131621393363 0.19104425538813096797 -0.18031768272323175917 -0.068742206856339221899 -0.31008826727922633726 -0.088354358159438262099 -0.25658284834089700732 0.17792147976036287726 -0.149991898772921739 -0.19940881868130333476 0.036701744580622384928 -0.21698698813026162657 0.14097163651811298046 0.17964823362489823477 -0.15330047137493638121 0.141419189326001421 0.21518988329170768425 -0.041621419424979898272 -0.13172834897285651268 0.057742395615921419949 -0.050331066251168780912 -0.21931085064424885034 -0.16568063988820649901 -0.15888526973648428586 0.19394438744820888254 -0.15019910769791319782 0.030681854619583733002 0.31932792984779401202 0.26355277374093166731 0.24355081718064067187 0.10623075435861348281 0.073818971658460838525 -0.1172374095414490669 -0.2048166454616826837 -0.11600898011045389369 0.2416832520856695421 0.040764869505202867839 -0.074103677716662458286 -0.21988196529216727515 -0.32458140658306600113 -0.3275786723013023316 -0.17025829780572876437 -0.32175435648265748867 -0.22777859586463067298 0.01994053879062916701 0.13042387864472387848 0.058797092402063898253 -0.073464804322930565839 -0.12735857447568244005 -0.33912090153737767251 0.032066489517506069351 -0.13974314906158130656 -0.11483662611093628514 -0.14713904898822360856 -0.28396355850759191775;0.1567972300077796477 0.0059240966897788037426 -0.18877009119594828634 0.13548302860048830332 0.081784221195651957137 -0.015036422396461466763 -0.25714081936425475794 -0.050991594034225554144 0.16471792893268960567 0.14972169573395838205 -0.10722626070256600916 -0.17629304401333487085 -0.12431311426069047155 0.17699038187999471816 0.073035321926874410825 0.089239775172064564335 0.11279795801088415841 -0.11016605040992669129 0.046809701772186192159 -0.10518205813566412765 -0.1048640613237394742 0.16304437380513983613 -0.021727722110799294747 -0.28785843062310423335 -0.15116009549954242952 0.12845311303147047277 0.15015576477398703825 0.069543917166570753952 -0.03039819757282480675 0.51752984247041022847 -0.051485493432502631161 0.019586331887730991375 -0.12480082339272638436 0.13038073179683137837 0.033443733649494072901 -0.043684914053622715679 0.066269689733365708117 0.11639150619305357881 -0.097840738556245240853 0.083160714367003660263 -0.13658832162085157713 0.24950161170403054034 0.050878990422582842656 0.098749950684576218163 -0.1378171922055449472 0.27933564878205219273 0.16856575634831735822 -0.11559802267469694581 0.29312923864396878137 -0.20069030690795225391 0.18309606823264404363 -0.10283988418665616915 -0.020488919498615164316 0.1234378558489868799 -0.18045591916751643757 0.097286276586518866116 -0.19964504419245374112 -0.19403422685638646583 -0.17388375753008278313 0.21742705107375628892 -0.070180904588785328335 -0.18467938272278250356 0.41474333298945159632 0.028129349032277900511;0.040609134208958945489 -0.063074560083399663912 0.10509690190936540888 0.088380801306274722751 0.11458926895096631371 0.16418483094129160405 -0.0089472617971474901338 -0.31136850218021350223 0.084109711327094188738 0.31859603605005931692 -0.12808787967611878766 0.064434280370859978171 0.14156306070599736224 0.24211289613979969371 -0.23416042028098987826 0.13622989024951104309 -0.079828973049261231498 -0.14284594951712795141 0.30682672382479692086 0.2610500199372438046 -0.05060884146047883031 -0.013261346889961254242 0.24712907393613309237 -0.096029996685318017025 -0.11532133015998985437 0.031345858685385037667 0.28115315765763154721 0.2183586391761417056 -0.2519351529104429388 -0.2843472053887642903 0.095588578954762526418 -0.095223864226381099707 0.10925709171377788465 -0.20838150260745338938 -0.091181387208698727598 -0.1488584426919463688 0.20935722435774342665 -0.22802944096752833514 -0.05707122254607018691 -0.067769638269949500353 0.038772862047926251461 0.089408012471093853413 0.072689591102757203367 0.24383766465311548788 0.27845334700406670914 0.17566235551209274934 0.052050097561704207483 -0.10317948631585677211 -0.17257952159216327637 0.099458512596520859406 0.058917328987163002096 -0.23001861248514404723 -0.30545642346564289005 0.17687366411635588315 0.10867293056224647252 -0.21618094606027962734 0.27142087912216866785 -0.1679706033099477025 -0.10808750900504807135 0.20422943500567850017 0.19374270450087580087 0.24302907262298237279 0.039058811008439692225 -0.24385910537656566022;0.29905836642141830906 0.014233889704922690969 -0.063684569664623408292 -0.33478693716735119512 -0.0772015738178048333 -0.020930071973803688473 -0.19447376681015018929 -0.15225287880009655272 -0.095812821191477465232 -0.19649195104752067986 0.022037852952025784731 -0.28811908871736841009 -0.11572731130710670056 0.016865347457075897247 0.14691465902941816535 0.20158994909819658026 0.094531713684817636478 -0.18397715966478023208 -0.21670820496290874035 -0.099850259961541551479 -0.097712771320948049736 0.028507567113237437806 -0.06795429849810233347 0.04776071119157381667 0.36104574364251001972 0.093658879020384333547 0.19612782708535697607 -0.13145568460576842473 -0.16483200562938951639 -0.15231445276812824452 -0.093256683532980499951 -0.29441987018623150263 0.22124941623914604061 0.10549699253233497942 0.17288067172611173983 -0.14263154737029368202 -0.27436196705558235642 -0.30322724307094106599 -0.057023917313287160458 0.159664868549972222 0.26185378081543869699 -0.37728896931581618057 -0.20659487997609818355 0.013123319577291453833 0.043305160853353438788 -0.14003806993825052007 -0.21548175483575685019 0.13800730736666289022 0.20489674252285042244 0.070757873802328619117 0.32417892814710974614 0.14231948009428507795 0.040577343221790886096 -0.29937294111147177977 -0.16113035099776082393 0.02588012834805788337 -0.029811211445968446854 -0.011359798523843172777 0.045173295252919257181 0.042022135740732789733 -0.016824834237308950585 -0.10572495741155364668 0.24405298525558510869 0.061924031466620461928;0.054902785994706763961 -0.008137876738381816244 -0.31505874147699275412 0.036625304913015091501 0.083082771876671596134 -0.115278677544189051 0.075125514209626584328 0.24122824298307640745 -0.014519650169054784325 -0.2202851428606028561 0.088232167583283477308 -0.064856855461757081938 -0.054436316058838189746 0.25150938976391323809 -0.11171490471172310088 0.17022890676781948782 0.1033075180630857598 -0.18933716990290849758 0.049572537458617511874 0.12856289234568127333 -0.034841786712213232424 0.01638813697813746792 0.02782253015275015437 0.0092192297772362361008 -0.3117388841428356816 -0.12266773433248755187 -0.12320080454490946187 0.034067254738519868462 -0.15164799094532235846 -0.46508813450651903532 0.062047157756982933285 0.15191173438812072272 0.26074308136358426147 -0.17625479841961966265 -0.22972611343488677504 -0.051096318212665685354 0.039885318548656040205 -0.20476315420207755191 0.21526360942854094738 -0.18318386318370477595 0.14716801614538635445 0.047376062950163007337 -0.092425018502340111626 -0.0026215658918415001358 0.096814909168253387994 0.1766096259632492782 0.10275858525743013228 0.067708317447506397024 0.03384580977574162125 -0.15645025294359268808 0.38129164354401123838 -0.31034878868446719169 0.11025553453367080425 -0.201943014134890797 0.015345235325892698716 0.18822305160642616162 0.35113940274915922402 0.020713688323613654169 0.1403971715345552207 0.018489394838075792066 -0.29591321665975695021 -0.10427462950797534991 -0.068093139336011646034 0.045600885274429230065;-0.10657152992700566485 0.043867995833784097226 0.099069742306236149854 0.3228079744967165543 -0.16499849354434445448 0.074751743791938454753 -0.26423192499638792352 0.087837892278288809411 0.0092925739655853115129 0.020286723478579401364 -0.06063303652177406966 0.10329413541804198517 -0.0025400947922456220893 -0.14529891880288298145 -0.24845237193038949286 -0.11968351461351338372 0.045207819742832056065 -0.16295376266163336121 -0.11439954819073434866 -0.044993205469934412222 -0.26189461368996147517 -0.17663006675729084338 -0.084766288710331372247 0.22853238588698163158 0.25651398260145158448 -0.088617843516307026608 0.20774184751433330542 -0.13561961554777104966 -0.29487817905553437292 0.36194618124702648831 -0.12205465016934609335 -0.13708366471827215793 0.39672837272284344756 0.26779021660931379145 -0.22299649930873771675 -0.29226384503515101532 -0.15970316642695533971 0.19910263300506486628 -0.20985763139576010805 -0.25896159019812514668 0.045423571070691115548 -0.26519101676844780702 -0.22243414633305633177 0.17419528230305858507 0.017275890360032873649 -0.22200387584715050582 -0.35799345623056466614 -0.16183700097904796245 0.05162040361478047179 0.29719485572919029925 0.12985087609396200881 -0.03952100472494526201 0.15190889255840264727 0.17339325563168084265 0.033541927636687396408 -0.33190415352229657442 0.2046604925923746765 0.0011271442885202906208 0.087594138019857756272 -0.16974065918913044948 -0.18902634895458073072 0.33582427921764551604 -0.039380913764468013227 0.15299155321514776307;-0.22325690464607744756 0.21118010669933173773 -0.012550516386966800025 -0.34360255805604533741 0.18812717805915998848 0.22236692048509199005 0.033189392511354137705 0.22529494005090258679 -0.04747666376689533424 -0.20735877396824223262 -0.0058663432342673177758 -0.22612315674464888993 0.11779897534863716102 0.026735315078085641199 -0.31200932831706368331 -0.29542616872506388681 0.36650612933249426817 -0.061527738269086126865 -0.15938612243603186847 -0.31312963405783350579 0.039485304100970536334 -0.16281704114573714026 -0.1005026509382120764 -0.24889820519537680932 -0.08407943506011569812 0.18593374362720549442 -0.12483194613525844252 0.23511153635441059406 -0.28164675931834737277 -0.12224917248478546494 0.027981535621177621581 0.17782319437455790245 -0.2694910795006829618 -0.099320208875567084217 0.26246595355439361619 0.068120381705816773765 0.23487956897716621985 -0.039191028027024406299 0.14836363689293705082 0.14380672460550369962 0.28023428723111110106 -0.21610024516512790771 0.23420088673943420532 -0.14144231856957920068 0.1616629217932211704 -0.10033224512251141813 -0.17843181911164487929 0.18716729838248122308 -0.19039640884331954229 -0.014684127444108741045 0.041162971404783886553 0.072946859397933300206 0.093668405808736074358 -0.098348468543456926683 -0.018642728706188972654 0.18171526699764684043 0.0048034931970478483496 0.17649401797765093547 -0.086522783865147487314 0.13754821960965618599 -0.079421749072823358273 -0.24404310572505499843 0.14808867685556306726 -0.3050251262999512103;-0.14266361651949285849 -0.13326680800065660026 0.069853097245851508701 -0.27736818410615232677 -0.29287834999729517316 -0.10911434442919572263 -0.13357917018971487977 -0.30176011701862748282 -0.25263011393645917746 0.059893488984868618885 0.19010199890991216765 -0.14795387754540181846 -0.038274748351752901909 0.040338856761150419794 -0.262213490859586007 -0.31017721371732925872 0.012473485078449378372 0.1746260801846659938 -0.11790959683468775487 -0.17765071987885569516 0.26330063172776119185 -0.039313750435412457562 -0.092734489201340392084 -0.10888901580534826596 0.2532877228945964454 0.075750750236270050775 0.20796421701320982889 0.045865254571259957139 -0.094511463904258519175 -0.084943326035542623953 0.031466843710424317881 0.21682490982782687272 -0.24590575202345452133 0.02310160868091874764 0.16104271980811390996 -0.076304932303688177697 0.11261724768788593243 -0.049958426355705888577 0.12321256563925533922 0.029416797587058514385 -0.031469712261220188221 0.22747821459412687073 0.038744401561355702734 0.29091410086349822617 -0.029521876209764343763 0.1312836824470016428 -0.26782640690597447897 -0.21816259157090633902 -0.11379757406646147377 0.074860911633905666274 0.24682435810606923043 0.022150013347045954121 -0.10996655462880294829 -0.13835700784401111507 0.073442283243929776249 0.31590862207069614342 0.18910915519141369145 -0.31320106315901841132 0.26942095374559649201 0.10256478295612847518 -0.16123564802628773118 0.018812165495465080906 0.14263964105480764211 -0.063073201386349350694;-0.14285261722976280718 0.01511844246573666381 0.050286307256418215361 -0.25218089519961423006 -0.012385400102769436592 -0.039300295127395211414 -0.18313623010651874923 -0.30928031045511278352 0.10539458630295102382 0.13059266904181507374 0.16016554518178699462 0.1881842791243023838 0.23594101874133038832 -0.14409843607664615805 0.068806169173507181203 0.12375487851214919677 -0.12647719475092536467 0.088322468137448761905 0.24639259250279674229 0.027006241073664633695 0.14780566041528800381 -0.24063389250573027911 0.11019898815219360266 -0.0071475689452574894464 -0.19465454251075792191 -0.22779419769944475593 0.30976359263440117475 0.24468518453116316902 -0.17998062539120870951 0.16837096357863443052 -0.032780804206360134034 -0.16119324125423017957 -0.20008061317901609799 0.26354496095073659534 -0.14250532976441962485 -0.092857132619927243433 0.0020886194771212625299 0.28866867545900914971 0.13354593978573778279 -0.16531902227027875374 -0.070566846035686914274 -0.19740262952835790911 0.35734321298712151682 0.31876618050934968362 0.28001033525407481584 -0.22087192590195223185 -0.17006940345890597666 -0.18788124678861614636 0.22589831200649140852 -0.043144210554602435703 0.046753086778588782979 -0.20108234086182774636 -0.044914566288444167375 -0.08203005391350637332 -0.10043048619565933532 -0.10115733733142755202 -0.14838739321483390698 -0.090094187929638122614 0.31501842530986506885 0.18471570495926348254 0.25831236913334010286 -0.19551013849533127598 0.13822888807837674374 0.20224602549448725264;0.28601873395721677529 0.066701495501545943201 -0.0400745344611638174 0.021934953823412636775 0.15226089597647488039 0.053116527799342380667 -0.2445048758868256511 -0.10249848573250544548 0.1249239835266019033 -0.020470127987823265314 0.22193133369785253417 0.21533193195308220069 0.30222525866942795414 -0.28537175304536255283 -0.12800538853839038556 -0.16516214555827907207 0.038204028039772595926 -0.26041054579178518624 0.22435129413597734716 0.055391387850694931427 -0.077783531224110760705 0.18022514339616213519 0.066238361786057492475 0.054900631021530525711 0.15569159239767557668 0.086086375044508944843 0.24781500145808038615 -0.089558834560268307801 -0.03581290458498526813 0.2244689217883976684 0.050395080888277196673 -0.035198064483224281163 -0.16618722418951833997 0.18378685880501305361 0.12254182481306687136 0.08913555983286847173 0.029360189918751708471 -0.046781566103118087108 0.27031405923612839004 0.12825238478159003974 -0.13325770171498899086 0.076590663208621595492 -0.13076534254378668898 -0.043686100049772406961 0.13829879786555809851 -0.19611111018845356346 -0.14081471002999426667 0.16922757341165009515 0.19462266938317640541 -0.23372080870178260636 -0.0029785928111045285524 -0.20502000267613326723 0.26544508629160457058 -0.19794489797198980274 0.17726124787168073826 -0.33451304319219737904 0.038026511961524712968 -0.19964557507319127816 -0.065117991704872799086 0.23234297881312113154 -0.17616831150658690541 0.25318759771588283947 -0.22914921868614310241 0.28094023775394261211;0.28432793638637332556 -0.21722391331743018394 -0.30340790907805081922 -0.26205214100339879746 0.17152822731694303271 0.23663168634237527477 -0.21966550660177025511 -0.2306711702897740468 0.20278707823058056414 -0.021660410354630881685 -0.14840757194722972723 -0.25453376504901414901 0.18599385152576169977 0.021473982643889121674 -0.11178977174995857746 -0.19329314542176148639 0.28273808998676908111 -0.01585084284868652077 -0.26554589131153727433 0.12686958105014478626 0.030895496510699331505 0.16377212612973471306 -0.020145774604753252657 0.10982328728863070821 -0.31429249078452775601 -0.079222828900538916352 -0.17129510962017530096 0.14587500409880349572 -0.056125164160677365466 0.014974010919347937459 -0.30957878680030709306 0.082037342353553657781 0.19126192515727921672 0.24920929288607140961 0.00034050014663670406367 0.26962891199663857611 0.17383352006215091468 -0.17632781407135528218 0.094306993306077821493 -0.16573852814490064311 0.038956811056956294759 0.21190049956214951354 -0.03035251435119682567 0.18893151969035451576 0.13741422491895541325 0.060698136384966863699 0.15489091469608690099 0.11600989644470258155 -0.024169044826884911875 0.19456928347724178341 -0.12117578568444865861 -0.099668785705999490832 0.12828240755030764775 -0.067469632862517836536 0.22363622892422385657 -0.27120201763613893675 0.32296314779610868495 -0.11962384476308830783 -0.27352128224551813807 -0.28765976486807653956 -0.18924953688427192944 0.40780662133326500696 0.24221530493088966329 -0.0028233101541142741758;0.24380013877634770791 0.054825134684322818224 0.15641860302320001463 -0.031033948420856848072 -0.32661759074146529125 0.036467894956611492108 0.1960045656671319525 0.07361830809341667059 -0.14275298769909139374 0.26459224846654849639 -0.32064605365574394558 0.13880865312424911506 0.11463068613546661956 0.041008923327666368941 0.25461698604903665322 -0.28294594106540993383 -0.12524596083130912216 0.20800309699092117688 0.10049667527252285903 -0.10137123020615283753 0.23484081295287748126 0.15561104431916109037 0.011566870055794932839 0.1179936543381451125 -0.26719093272933125416 -0.1549023425879272331 0.050194509993073829768 0.24030042248991415055 0.29363269453815760146 0.17825133658879335763 -0.17089502774435280652 0.2536090605972730061 -0.1689257836205897978 0.087406476760790871583 -0.22271518629606407158 0.11411946883736295844 -0.029590890354449696925 -0.039375088586950809932 0.21923217117950005717 0.21343739188654983763 0.16597202978068986701 0.36242484544066005947 0.22748918606747847715 -0.209041526983062248 -0.11718257532795312015 0.12949638028799503875 0.011904398160263502185 0.040849690609066131863 -0.10413551819991384573 0.27823977103151531498 0.15908221668109687186 -0.087912609830325491589 -0.28194036616948231488 0.2515481258209222859 0.27024492600965904776 -0.034269314222354227417 0.33250348289080616793 -0.091941800549146079913 -0.22037543157985811648 0.056882672231485034708 -0.28238504487787885466 0.03806937155745539203 -0.20510208811331634426 -0.13599387569845947099;0.24288368773274907064 -0.18687525407278396394 0.10366935710964278461 -0.0055987755214460610889 -0.21926510012877037381 0.19001579639626978158 0.061953614036431632617 0.21871155331438799085 0.17609585590212503692 0.17328458779776281795 -0.2132775047666182755 0.019951291584767907178 -0.18834958846423371925 -0.084684193854653130873 -0.11794301168105393585 0.15871327479775620972 0.045300045613696174329 0.070110695155464711203 0.1556686308946233499 -0.3058889752466747991 -0.031617651111877836945 -0.3904765741512524202 -0.014874251416463247361 0.17804483857985303752 0.26521896716935744465 0.19438577206579191192 -0.045077456043927495444 -0.24406557841117648699 -0.066614736272556984709 -0.40416144920586050127 0.13864856799111033303 0.044795103137103726987 0.083194768252793982466 -0.077221509308435423713 0.25497911903870829065 0.29362863975753894508 0.13849841606628576773 -0.15651110135668891421 -0.0545605408623178606 0.22604899527024907568 0.2925793016477180597 0.2380108409684596471 -0.015710285901059044267 -0.023507649741464149012 0.1808366885162490667 -0.12987814392670299357 0.24640765865724445494 0.028576818252029539957 0.27507363841146031946 0.28399302449490798628 0.064728181832112943739 0.25944522219999055501 0.10284272985609294038 0.16244301453912046718 0.13788357814353222053 0.24619966429612080705 0.27006976275600769188 -0.29975680233169677003 -0.086399097211025066567 -0.16531413625624094554 0.19360405976259567606 -0.1798564447954524026 0.1831551708100105369 -0.2587798293689612672];

% Layer 3
b3 = [-1.5453962419042301946;1.3793247920660978156;-1.2699222678086841132;1.0531479715241915951;-0.89153366117774213162;-0.72739439890299706359;-0.57150444208343842423;0.42491636945480271148;-0.21454734393430471839;-0.089072414340003472355;0.10845094431442049709;0.22159879500434032096;0.44411079562512290053;0.56834240202283636823;-0.74299860649331050944;-0.86364115272719632621;-1.1234923809187586929;-1.1711753023965627563;-1.405532208818671247;1.5500693250537074253];
LW3_2 = [0.076646524004272256758 -0.22742078812149463252 -0.22817657913945110781 -0.32316254987602371918 0.10078302316553729157 0.18829737932381834797 0.29540327759884654757 0.38115564332996232366 -0.12065691792847889341 0.056387024944032144991 -0.17263103817307354215 0.23465017714905062052 -0.11301776526938313305 -0.092980867930986407788 -0.23467354553358210634 -0.39798961888065420567 0.1964958583608452658 0.1252608401534994198 0.13069626649796964313 -0.44574802885610259606 0.16118253102336796423 -0.29155789162343792587 0.12117476035299996895 0.41423863663687970904 -0.43557929536453632302 0.34581672521378659102 -0.32036405611661489257 0.22189766647623326845 0.05103490199044607295 -0.35108364975892158988 0.28225223989935244173 0.28327624282466618011;-0.30094750346865373203 0.24404505029861697785 -0.091033311978610725879 -0.28795444528502978088 0.41805201372469058541 0.35141625636290646506 -0.35123196176739696073 -0.065342425986589139364 0.007976371497087719406 0.08186932822164080803 0.011229060096398190555 0.31449580915842961781 -0.11669836337061377518 -0.26414860405113421704 -0.1121847430837546733 0.29755970852995855536 0.38302293446276208799 0.10750950769252778927 0.3423407196425742316 0.39078647879738270809 -0.17419126734547324409 -0.22498497012969398412 0.30263426790279607248 -0.55419857602659639007 -0.080256441766385869241 0.16593180387176162394 -0.1545422591113408961 0.063073924222535646122 -0.32037290066752321938 0.23984605990462123937 0.44719989860396469616 0.092857112611563222271;0.40285232360050171607 0.31449996975617927619 -0.30914384904769509621 -0.24130582526352442607 -0.32965068116668816423 -0.23543094672828668301 -0.24265498784203046179 -0.021585882063515530321 -0.18002275142474974401 0.46121563404363985494 0.26299654437269115448 -0.076897661914046858134 -0.32486012082186310757 0.46364599914996867946 -0.013400861180218107821 -0.21566102730606384608 0.22327954810232830685 0.28214373463484176963 0.19118172138491709711 -0.31294718785791836302 0.42127118264218305077 0.4236379005454263269 0.10066319276484175793 0.21579376707425043658 -0.1133621348768686643 -0.031074365133955544199 0.24805999351256990959 0.3806785360751632763 -0.20562900842737052987 -0.21909850306240788442 -0.17134552757184470795 0.10285380987040129708;-0.079692101977010335045 -0.25358388171089185636 0.2444451528109919114 -0.4134819952234101148 -0.34788934699411766527 0.27578495333694902358 -0.26190254838133081305 0.29880218268441310903 0.22963960717721138005 -0.22087815970351329375 0.15992838495408748245 -0.077684384672420600526 0.36403376520365299251 0.15019699434979691399 -0.3774414167608705073 0.29609401745841712472 -0.25564028288342294237 0.13120447048129399437 -0.28681422840492282189 0.16296771917691249554 -0.46334994301469462075 0.16095552350262620767 -0.29887768997369174029 0.20692717506485489021 0.39410404549671479435 0.091891440856715786434 -0.34230653500995278371 -0.1157680807979412918 -0.39502211125675340542 0.18064804266288994605 0.20195396410232810402 0.39316879277721544783;0.28177850166897666639 -0.0072684789810078765868 -0.022807548476746930532 -0.12732623469227760671 0.44989157296651072215 -0.27496713756286822461 -0.40915131148583039344 0.07246084189648591134 -0.094382547865734495174 0.092452943307304413789 -0.48006968141544265061 -0.53704122186551095375 0.32982355356373777022 0.27162699969772147179 -0.26939523809314896985 -0.051059141019781935367 -0.38029146779098682574 0.18161130783259968324 -0.18620346228380599274 -0.39186160054676083542 0.32306304710960104254 0.081820184482071581233 -0.14981533173844305273 0.18108032010753424834 -0.29756036493114429442 -0.20440389345644180419 -0.38052359649755912452 -0.20207886835069466258 -0.040338520151096811384 -0.037558976528904788883 0.30110493950661831875 0.30833648291446275058;0.23500641483969053613 0.31901110403820998052 -0.018321222846723959898 0.14776522697720673172 -0.089111381175761672502 -0.31089913928163459556 0.38949071024353248971 0.48317853946363464868 0.40911073725585728189 0.21634978852957315043 -0.032227074781712244933 0.22914646508290092974 0.14004806010261511284 -0.27357150552870213023 -0.29021461108757407032 -0.086129401189167592578 -0.14082323907361821158 0.094715057197547414258 0.4154326975676260747 0.20767890126299057285 0.089029527254808421555 -0.19338003673004283689 -0.20733815014792453257 0.19117314693572373674 0.46802809794063121585 -0.36414847741693318062 -0.24258384921202028051 -0.047137611446085359024 0.31021988218682094995 0.28821114356812321811 -0.12034650077760086773 0.22138244001992540833;0.075409788468849492382 0.14001061629241173812 0.21940315331070331384 -0.17318921532144532227 0.26956384383850007236 0.50634064533775813288 -0.34090584362547965425 0.11467592066342800761 0.12466860166262828946 0.37676832853586189609 -0.10065793606382275605 -0.18979738441898305612 0.33428424702423076287 -0.21429789314029182301 -0.45314364818128505252 -0.19724554593410573156 -0.044416535862659867195 -0.1276909675188018789 -0.38530325632671785785 0.095913984622802983537 -0.089685299519003530699 0.40044829585743202394 -0.23491982584604093054 -0.097144423467660404037 0.003962924702997467144 -0.14382384639386039393 0.31558150720049915616 0.10130121071960740409 -0.059679803389967686633 -0.13781314337822375693 -0.10187749747907209885 0.29511582129770758121;-0.085269680481104254133 -0.26753407960641589769 -0.3063629125054090907 -0.34031251149119468025 -0.11826876918021471397 -0.41500510419603048318 0.35652297346492406449 0.081376745610661688213 -0.16637361791987795301 0.079452416391635957704 -0.051853522758753489708 -0.13568566882139726504 -0.34864689224098693865 0.30264222114744382397 -0.22100085440959590932 -0.16450375389970217643 0.05321115127604054279 -0.0016715906814447423559 0.099878537517539139889 0.26831464943687810543 0.26183877287125428834 -0.52728350513449950832 -0.25431798626111790096 0.0048487171747582840167 0.24742211209687622886 -0.27478958029227523729 0.30622530474388587329 -0.3587803258954153085 -0.12885013343675760789 -0.12647874317302215674 0.14082532052322202509 -0.1903605927437767853;0.15763494260728669327 0.37360098272764524774 0.40601073218906641449 -0.48865354948838624072 0.40877052080387160649 -0.19905694746455296351 -0.35287024296883773289 -0.094806681496439365597 -0.26665031583979126317 0.36544430403766414717 -0.381283563495127098 0.154259480143535882 -0.0024766056014732559624 0.14102294928552872033 0.16464797242653800291 -0.37183409369766390329 0.21720412659101970276 0.038464773155181625208 -0.014784049230798415597 0.19363170120326594903 -0.10238619607999240035 -0.2982404402321267578 -0.11357979935572562469 0.14410027203126507533 -0.19993771710701838118 0.28241808006505386697 0.27991761892152194902 -0.47475650118185580562 0.034001699477545076211 0.34770790164529075117 0.21364539169081234182 -0.05263496095353183829;0.13285211604330970925 0.044849508838895484064 0.2018456395323864061 0.091916307899421068051 0.29728078949212094484 -0.44330241879960013973 -0.11087067032639498498 0.5058249966011870713 -0.40400401782301259557 -0.47496295538015942395 0.064409589481432133473 -0.29320130371825214866 0.064210428247155060255 0.32397616343659701998 0.079992391754349453925 0.32478550845003317793 0.27022847807087413408 -0.0062933251048608428863 0.36620651366734119359 0.50699493329355937998 -0.20926940945226965574 0.16354160623955851794 -0.19554189231970778295 -0.18828425680165641887 -0.3105238875793632225 0.25258818871913391035 0.46641001636541667974 -0.42010111372686276265 -0.26508271970617253155 0.10087594182318665448 -0.0047947819051739953497 -0.20945601127221957771;0.25360070378522897583 0.26241454448707773883 0.13788018486396227957 0.22829808795177908287 -0.18740463101633175746 -0.28561992965451415971 -0.29874021836962560972 0.21778143741033226255 0.092312078234726327453 -0.3802154591400893624 0.19606767118957146856 -0.26682918560481960757 -0.46246169593212860249 -0.19105325394779643089 0.23028417788448832249 -0.029224976764530393586 0.24244378814603367855 -0.25712600074083452606 0.063994956328238414289 -0.13814087462459523348 0.42995885293178093267 0.21600417250067172059 0.17106631382909934236 -0.37793830578460774205 0.2753849180900691529 0.10076003173387111655 -0.20666553137549467656 -0.19904011169838389805 0.12975210543655227302 0.19804603348032748245 -0.072039016065928287991 -0.2751977200660891687;0.075782137175134572926 0.35164398426463006064 0.041723203534661176817 -0.48188053624757387627 -0.03118124140268926231 0.16381331651563371676 0.058964266262412128039 -0.42120245226401675787 -0.23730552263948753722 0.069042640297608592892 -0.11601427965447233537 0.4488766336707378235 0.16837470249875771677 0.36408173902614121564 0.064070413089234862225 -0.45539633725792277863 0.022664474778077193379 0.40806591038450884534 0.064332843806169728862 -0.33958804041260537421 0.33455440769595762296 -0.03940072246763501318 0.014046081376217826181 0.42681549415148156701 0.26852788377614977833 -0.17517345456059724151 -0.11354951125343237806 -0.46577710400464938933 -0.11002813015920051565 -0.037303135268816921266 0.23996337574448942109 -0.24160014384044783964;0.4252751333557001634 0.020669868338491610704 -0.250562391515661953 -0.19650481563213512137 -0.17076530640508147396 -0.50387292431004049309 0.097114446763129386175 0.16243679304949493192 0.048735242931048708415 -0.21083438893803516101 -0.079626979652971732748 0.33990091551347345611 -0.11815417885973134027 0.31493450116637844438 -0.10076046514022324319 -0.1977364113390589484 -0.13281649164248465755 -0.36597835834044578629 0.35983018730501925564 -0.41675817902585621244 -0.30112532189895691026 0.25579081314245005752 -0.22625466674972213865 -0.34090617774902276516 0.25022705023008651182 0.18978284101515960347 -0.18117294320956264797 0.4752562505845031593 0.16373628335412721002 0.31789315801175671572 0.31062756996196694281 0.24243880434868350648;0.35636032903178060938 -0.092498112732657983281 0.3471217866136006025 -0.035855294845369055368 0.26271163025019067527 0.43126193690223491028 -0.22128058129465130732 0.30960507137010390144 -0.38995066384052445851 0.14384164484627603997 0.050592867301576742445 0.29368442122587296028 0.17344693779858719185 0.36140258053505947 -0.057509481711219313793 0.24662355621666270933 0.012284148354399525294 0.10593291278436189895 -0.32356595298021872953 0.31330780504166166889 0.20977922198151566224 0.16821576281909450534 -0.27931782678865607616 -0.03105115680944742218 0.00045820673458218995431 -0.22076458536743176486 0.41154237733235748964 -0.16602562482586738501 -0.12055367734516943268 0.31226186607885364488 -0.20047189623706401784 -0.10818789109589296848;-0.019037686346216987215 -0.17004942863517938378 -0.0064450943093123623517 -0.10547547392131745303 -0.363243219271961848 -0.19852438500637861751 0.23643040586332972341 0.058704003006120053509 0.37236723072482413865 -0.29115230303571132398 -0.45427818111091827769 -0.29358799956708497847 0.12654778825874746229 -0.35046899057188296567 -0.40298098701895812557 -0.30306906723848336949 0.12278888779407277909 -0.32206836483567496954 -0.24641860829054682003 0.43199441083832240684 0.27590228974228647729 -0.33938004118211084759 0.22853553757301184324 -0.17724874006224411449 0.11325912102340543464 -0.33968803130853902905 0.42447968719128620352 0.04979363147868795525 -0.30524687186317073229 0.27124818720171550712 0.10156962544366225643 0.030811656271874061225;-0.28621951363412800884 0.24947499616079638063 -0.04454894555420601393 0.14006009373809971685 0.30610408217167683897 -0.10289921003221820517 -0.50418985514094283307 0.22382529107974544202 -0.30437932396367167742 0.11952599395386243053 -0.20680355278098100369 -0.04483287912153007676 -0.22752412607087701968 -0.25367653181211052837 -0.35863191854337822528 -0.058609470684322727274 -0.3546319816956141624 0.23668698186045000753 -0.19484422472329102072 0.34880746071824758614 0.071053245228903078035 -0.11992843326899166323 -0.35037407080838872675 0.29796512496147875559 0.014502524862406730374 -0.33725424098280037954 0.0049579835666744122638 0.43794681833136123172 -0.3200549521315555479 -0.4065938356520563679 -0.30236364116569885985 -0.24943924967592850939;-0.19044223104055307827 0.53245710349577790588 0.1893104583656413098 0.33571280897768335238 -0.389931904229156856 0.14562726916000329203 -0.21048777464197590548 0.18673009316701275062 0.27327902710991230917 0.42064005037802520981 -0.093675049967985229982 0.26836690398127349688 0.31525815471295587367 0.36666136977290780807 0.053299660031555937123 0.10299806516810468271 0.3417427390910263707 -0.06873799087247224604 0.25548447265381202254 0.19501850962278124979 -0.074174266673203217981 0.48217404578328748599 0.05901765842974474735 0.34753827026196887351 0.41647532016677069056 -0.15588115536430191543 -0.18721252058431711585 0.08767277836089841514 0.10700396958001956449 -0.2637802390458101609 -0.39834199548447807304 0.044351585437666846135;-0.29683185659558825042 -0.056707390765799559063 0.19742485536318837847 0.12632401320451128179 -0.36994945503080323146 0.25378256918846908707 0.21914935299910504041 -0.37657396075552684866 -0.36860755075439877171 -0.31690315972915045206 -0.090446236918756153789 0.23360708108026365104 0.17923636937205941755 0.37834703718574658193 -0.053886284357947789037 -0.048595847099308212003 -0.13486923668819073008 -0.058006078482768397286 0.15148912853290882885 -0.19513810598175654332 -0.28634998520742444006 -0.044253511849144208656 -0.38229712175455321521 -0.27996891267010964865 -0.015955747569067934427 0.42448797331318582904 -0.32653760140461934869 -0.12369369329239164601 0.09030365977829703239 0.14704798580378639072 0.13738963604802961749 0.24729317685956087036;-0.37322339632528328535 -0.21120582662172820987 0.35948403823559932357 0.37124825785797599398 0.003003744401483553466 -0.14994926216898482596 0.28764996174379914295 0.0020401007988017491254 -0.0084713478477334396011 -0.079892707847854987913 0.38719041321023983659 -0.23647000687777003369 0.36391662542615954568 -0.2519650255085318924 -0.16494244072403099755 0.20752141013730784902 -0.24599654819807595385 -0.29797735315889101182 0.13229394813317360557 0.14878317806185928363 -0.28432262912229500085 0.3126009610248044468 0.28440439644630161053 0.137741823097618038 -0.082241894310107102606 -0.29962670978832783852 -0.2455654297194997393 0.38186683190849285419 -0.046151737741849108154 -0.25303635304620564206 -0.41636508810610856068 -0.37672636699908867985;0.3161485644484756663 0.0495187550261027426 0.095245039152361654633 0.090833597214675959597 0.28872258941199646642 0.25211336596006855837 -0.19227949105824013176 0.30522276513008256282 0.18916654656395581746 -0.33642751971985024317 0.22688431948163667595 -0.17375475775731930028 0.12359065296323364092 -0.22368268082660108798 -0.19844550495111726307 -0.32078844951257762252 -0.1734869263253434879 -0.21269572430515956696 0.17359065420332880914 -0.077328233257968101433 -0.28622034957079867112 0.29369807257943131296 -0.17858459200513440712 0.016723109616685261775 -0.34002575169294152468 -0.39715263254903548917 0.21462727733794081941 0.37468446622866263818 -0.2266843995889523955 0.52518574570002052315 -0.2996145923670793243 0.45234375116559960572];

% Layer 4
b4 = 0.87269559076068015102;
LW4_3 = [0.16865099859244578329 0.97823089895359915946 0.62239056225720401638 -0.87724578945813003195 -0.097706773474148606029 -0.029533360745800069092 -0.586934206829136218 0.51338258016059756805 -0.13029012335319536953 -0.20678173093817681094 0.41142440647442557466 -0.16723164745202243053 -0.054674011086912367718 0.45565566620791048136 0.15070995873979714519 0.23244978336805641184 0.4124484028913984468 0.36050575270547952078 -0.21722234496032508111 -0.88951219778936041482];

% Output 1
y1_step1.ymin = -1;
y1_step1.gain = 0.0538705252594892;
y1_step1.xoffset = -18.3223589557937;

% ===== SIMULATION ========

% Format Input Arguments
isCellX = iscell(X);
if ~isCellX
  X = {X};
end

% Dimensions
TS = size(X,2); % timesteps
if ~isempty(X)
  Q = size(X{1},2); % samples/series
else
  Q = 0;
end

% Allocate Outputs
Y = cell(1,TS);

% Time loop
for ts=1:TS

    % Input 1
    Xp1 = mapminmax_apply(X{1,ts},x1_step1);
    
    % Layer 1
    a1 = tansig_apply(repmat(b1,1,Q) + IW1_1*Xp1);
    
    % Layer 2
    a2 = tansig_apply(repmat(b2,1,Q) + LW2_1*a1);
    
    % Layer 3
    a3 = tansig_apply(repmat(b3,1,Q) + LW3_2*a2);
    
    % Layer 4
    a4 = repmat(b4,1,Q) + LW4_3*a3;
    
    % Output 1
    Y{1,ts} = mapminmax_reverse(a4,y1_step1);
end

% Final Delay States
Xf = cell(1,0);
Af = cell(4,0);

% Format Output Arguments
if ~isCellX
  Y = cell2mat(Y);
end
end

% ===== MODULE FUNCTIONS ========

% Map Minimum and Maximum Input Processing Function
function y = mapminmax_apply(x,settings)
  y = bsxfun(@minus,x,settings.xoffset);
  y = bsxfun(@times,y,settings.gain);
  y = bsxfun(@plus,y,settings.ymin);
end

% Sigmoid Symmetric Transfer Function
function a = tansig_apply(n,~)
  a = 2 ./ (1 + exp(-2*n)) - 1;
end

% Map Minimum and Maximum Output Reverse-Processing Function
function x = mapminmax_reverse(y,settings)
  x = bsxfun(@minus,y,settings.ymin);
  x = bsxfun(@rdivide,x,settings.gain);
  x = bsxfun(@plus,x,settings.xoffset);
end
